tree
version=v4
num_class=3
num_tree_per_iteration=3
label_index=0
max_feature_idx=39
objective=multiclass num_class:3
feature_names=Column_0 Column_1 Column_2 Column_3 Column_4 Column_5 Column_6 Column_7 Column_8 Column_9 Column_10 Column_11 Column_12 Column_13 Column_14 Column_15 Column_16 Column_17 Column_18 Column_19 Column_20 Column_21 Column_22 Column_23 Column_24 Column_25 Column_26 Column_27 Column_28 Column_29 Column_30 Column_31 Column_32 Column_33 Column_34 Column_35 Column_36 Column_37 Column_38 Column_39
feature_infos=[1:5] [0:999] [0:1] [0:1] [0:1] [0:1] [0:1] [0:1] [0:1] [0:1] [0:1] [0:1] [0:1] [0:1] [0:1] [0:1] [0:1] [0:1] [0:1] [0.0041666668839752674:0.2916666567325592] [0:1] [0:1] [0:1] [0:1] [0:1] [0:1] [0:1] [0:1] [0:1] [0:1] [0:1] [0:1] [0:1] [0:1] [0:1] [0:1] [0:1] [0:1] [0:1] [0:1]
tree_sizes=3455 3551 3522 3524 3602 3595 3551 3635 3615 3557 3622 3616 3561 3624 3611 3576 3632 3620 3584 3630 3604 3549 3615 3618 3589 3632 3619 3582 3649 3606 3573 3642 3625 3591 3612 3602 3583 3623 3615 3580 3642 3622 3569 3614 3626 3570 3629 3616 3582 3626 3639 3596 3639 3609 3587 3631 3622 3598 3628 3607 3595 3621 3605 3579 3626 3618 3559 3635 3626 3601 3619 3622 3610 3621 3624 3609 3624 3616 3596 3632 3609 3602 3647 3624 3589 3636 3606 3582 3617 3613 3599 3631 3612 3595 3618 3624 3603 3634 3597 3587 3595 3607 3591 3626 3640 3594 3652 3615 3581 3612 3614 3594 3609 3625 3595 3634 3628 3596 3640 3631 3603 3625 3621 3621 3625 3628 3609 3620 3623 3616 3628 3634 3586 3623 3603 3616 3630 3626 3613 3614 3631 3595 3614 3621 3631 3611 3616 3649 3615 3638 3611 3612 3619 3581 3604 3616 3602 3618 3612 3615 3600 3618 3636 3610 3611 3625 3610 3636 3620 3601 3612 3587 3633 3627 3610 3633 3598 3633 3604 3595 3584 3610 3593 3616 3612 3619 3585 3625 3593 3601 3611 3600 3601 3607 3601 3640 3626 3609 3593 3631 3598 3606 3617 3608 3594 3616 3587 3618 3622 3596 3594 3620 3610 3616 3613 3611 3643 3587 3618 3598 3601 3630 3595 3627 3609 3567 3582 3599 3627 3585 3614 3612 3618 3593 3651 3585 3603 3618 3592 3614 3611 3609 3617 3610 3614 3608 3616 3559 3618 3623 3572 3621 3635 3582 3621 3606 3573 3593 3610 3588 3638 3635 3567 3588 3625 3567 3626 3652 3592 3588 3600 3570 3600 3587 3580 3622 3608 3606 3569 3609 3538 3622 3597 3554 3636 3572 3612 3589 3613 3611 3598 3644 3599 3569 3589 3520 3604 3615 3591 3606

Tree=0
num_leaves=31
num_cat=0
split_feature=3 30 22 1 24 1 4 34 20 1 1 14 4 2 1 6 11 6 5 1 1 1 8 1 7 13 1 4 2 4
split_gain=52929.3 9323.71 4381.39 1893.45 1772.32 1254.61 1142.33 1228.68 995.535 955.374 687.922 515.397 511.299 566.831 452.572 448.671 434.35 378.657 360.706 266.746 259.623 235.573 223.614 219.061 217.949 207.617 199.774 193.446 184.607 341.043
threshold=1.0000000180025095e-35 1.0000000180025095e-35 1.0000000180025095e-35 1.5000000000000002 1.0000000180025095e-35 1.5000000000000002 1.0000000180025095e-35 1.0000000180025095e-35 1.0000000180025095e-35 10.500000000000002 5.5000000000000009 1.0000000180025095e-35 1.0000000180025095e-35 1.0000000180025095e-35 1.0000000180025095e-35 1.0000000180025095e-35 1.0000000180025095e-35 1.0000000180025095e-35 1.0000000180025095e-35 1.5000000000000002 4.5000000000000009 2.5000000000000004 1.0000000180025095e-35 1.5000000000000002 1.0000000180025095e-35 1.0000000180025095e-35 18.500000000000004 1.0000000180025095e-35 1.0000000180025095e-35 1.0000000180025095e-35
decision_type=2 2 2 2 2 2 2 2 2 2 2 2 2 2 2 2 2 2 2 2 2 2 2 2 2 2 2 2 2 2
left_child=1 2 3 27 5 -3 7 25 10 12 14 16 13 15 -2 19 21 18 20 -4 -7 -6 24 -10 -11 -5 -12 -1 29 -24
right_child=8 4 9 6 11 17 -8 -9 23 22 26 -13 -14 -15 -16 -17 -18 -19 -20 -21 -22 -23 28 -25 -26 -27 -28 -29 -30 -31
leaf_value=-2.0618661298336671 -2.2063678820412185 -2.0530955228325367 -2.0736450409063232 -2.1677597656795347 -2.0735859178384892 -2.1315097474074873 -2.311212985132161 -2.2389383909441021 -2.1314210836372789 -2.3066703115204352 -2.3070580037111816 -2.2550664720836493 -2.3144124990959414 -2.2868366390945867 -2.2944946785876486 -2.2788236250120111 -2.0660101377420137 -2.2516907618111039 -2.2358213747849214 -2.1825658224360076 -2.1721998483969398 -2.1243730212406899 -2.220762932882995 -2.2685281790502634 -2.2304268682327248 -2.2379261489846178 -2.314181726837873 -2.2899070876602217 -2.312375038756521 -2.3152640502877597
leaf_weight=290.81868043541908 149.86974942684174 240.45036721229553 65.053352773189545 2041.0832540988922 289.0345167517662 522.34822922945023 216.70726588368416 979.36861896514893 29.78180918097496 1323.9866966307163 17359.089181780815 52.975937068462372 148.77180254459381 196.80697864294052 5215.9339074790478 112.26506870985031 730.82089349627495 143.28206813335419 179.92604532837868 413.51424452662468 1571.1619884967804 1087.1046567857265 318.81632593274117 1337.2993025779724 100.87386980652809 111.16712182760239 22725.716298848391 9.6070352196693403 154.12429359555244 136.28265675902367
leaf_count=2119 1092 1752 474 14872 2106 3806 1579 7136 217 9647 126484 386 1084 1434 38005 818 5325 1044 1311 3013 11448 7921 2323 9744 735 810 165587 70 1123 993
internal_value=-2.28403 -2.1876 -2.22611 -2.1894 -2.13467 -2.16202 -2.20019 -2.19251 -2.30758 -2.27119 -2.30885 -2.10104 -2.2294 -2.21334 -2.29203 -2.18886 -2.09716 -2.17285 -2.16789 -2.16776 -2.16205 -2.11371 -2.29043 -2.26554 -2.30127 -2.17138 -2.3111 -2.06916 -2.26508 -2.24906
internal_weight=58254 11436.4 6619.25 3648.75 4817.1 2657.17 3348.33 3131.62 46817.7 2970.5 45450.6 2159.94 936.411 787.64 5365.8 590.833 2106.96 2416.72 2273.44 478.568 2093.51 1376.14 2034.08 1367.08 1424.86 2152.25 40084.8 300.426 609.223 455.099
internal_count=424458 83329 48230 26586 35099 19361 24397 22818 341129 21644 331168 15738 6823 5739 39097 4305 15352 17609 16565 3487 15254 10027 14821 9961 10382 15682 292071 2189 4439 3316
is_linear=0
shrinkage=1


Tree=1
num_leaves=31
num_cat=0
split_feature=34 0 1 3 9 14 11 6 2 9 14 6 2 7 1 20 0 3 2 1 39 19 14 3 4 2 5 23 19 1
split_gain=2242.34 1488.78 1007.76 934.227 762.43 568.861 398.327 392.205 325.413 325.324 297.372 278.509 233.387 207.374 187.764 204.505 185.374 170.97 207.93 170.22 162.966 143.166 129.413 155.227 115.178 114.85 105.927 93.9554 93.4953 92.3648
threshold=1.0000000180025095e-35 2.5000000000000004 1.5000000000000002 1.0000000180025095e-35 1.0000000180025095e-35 1.0000000180025095e-35 1.0000000180025095e-35 1.0000000180025095e-35 1.0000000180025095e-35 1.0000000180025095e-35 1.0000000180025095e-35 1.0000000180025095e-35 1.0000000180025095e-35 1.0000000180025095e-35 1.0000000180025095e-35 1.0000000180025095e-35 2.5000000000000004 1.0000000180025095e-35 1.0000000180025095e-35 1.0000000180025095e-35 1.0000000180025095e-35 0.056830143555998809 1.0000000180025095e-35 1.0000000180025095e-35 1.0000000180025095e-35 1.0000000180025095e-35 1.0000000180025095e-35 1.0000000180025095e-35 0.030317392200231556 1.5000000000000002
decision_type=2 2 2 2 2 2 2 2 2 2 2 2 2 2 2 2 2 2 2 2 2 2 2 2 2 2 2 2 2 2
left_child=2 4 19 24 5 7 9 12 10 11 21 13 14 22 -2 20 -11 -13 -19 -1 -16 -5 25 -24 -3 26 27 28 -4 -6
right_child=1 3 6 8 29 -7 -8 -9 -10 16 -12 17 -14 -15 15 -17 -18 18 -20 -21 -22 -23 23 -25 -26 -27 -28 -29 -30 -31
leaf_value=-0.68292587201129051 -0.66763976947390402 -0.58861790104891121 -0.63861041889841674 -0.62916389479931845 -0.63676611653067872 -0.63881219967894354 -0.65326482795200702 -0.58841288181182583 -0.59897980206795076 -0.61646707285181246 -0.65367591786530943 -0.59861286025673943 -0.60344746790679538 -0.62564969664748371 -0.62507957911557621 -0.60533541117421696 -0.65959188778812727 -0.60359021475588015 -0.6728429071757559 -0.65490504677983197 -0.6182710766259969 -0.63692496499270945 -0.61214206104609226 -0.65150538845457451 -0.65567395194317246 -0.62118255411681245 -0.61639543535218533 -0.65593424184603721 -0.63280002907463007 -0.60001571527302422
leaf_weight=696.34237217903137 198.52847909927368 1372.5333573818207 10060.766534805298 13668.984325051308 175.76487529277802 3445.1408252716064 2111.4175465106964 1104.2213715314865 681.04224503040314 4601.2333595752716 1786.7563118934631 960.54944586753845 2481.605988740921 7798.2135859727859 10844.804757714272 2642.8170845508575 263.46072602272034 228.75555956363678 205.99195575714111 2445.0349531173706 46360.131608009338 10511.560524940491 288.09019899368286 1916.9939795732498 67.171289920806885 1696.0750705003738 787.39678740501404 525.05558288097382 22201.604014158249 6268.5740449428558
leaf_count=1866 532 3678 26960 36629 471 9232 5658 2959 1825 12330 4788 2574 6650 20897 29061 7082 706 613 552 6552 124232 28168 772 5137 180 4545 2110 1407 59494 16798
internal_value=-0.625633 -0.621186 -0.633591 -0.630978 -0.617445 -0.619023 -0.631979 -0.617952 -0.633097 -0.631107 -0.633992 -0.63239 -0.618474 -0.633068 -0.619095 -0.618934 -0.618803 -0.610388 -0.636404 -0.661116 -0.619562 -0.632538 -0.634612 -0.646363 -0.591746 -0.633877 -0.634518 -0.634953 -0.634612 -0.601018
internal_weight=158397 101610 56787 28088 73521.6 67077.3 53645.6 63632.1 26648.3 51534.2 25967.3 46669.5 62527.9 45274.2 60046.3 59847.8 4864.69 1395.3 434.748 3141.38 57204.9 24180.5 37476 2205.08 1439.7 35270.9 33574.8 32787.4 32262.4 6444.34
internal_count=424458 272285 152173 75268 197017 179748 143755 170516 71410 138097 69585 125061 167557 121322 160907 160375 13036 3739 1165 8418 153293 64797 100425 5909 3858 94516 89971 87861 86454 17269
is_linear=0
shrinkage=1


Tree=2
num_leaves=31
num_cat=0
split_feature=3 20 30 8 13 35 20 39 19 16 1 9 35 16 16 10 9 12 30 9 34 22 2 23 30 5 6 23 2 39
split_gain=20206.6 2812.53 1034.38 949.812 1065.6 687.618 492.962 480.259 398.398 359.614 352.431 308.451 258.612 218.927 205.752 156.629 150.381 139.338 129.244 130.374 126.864 117.135 116.368 116.327 113.765 103.809 102.635 100.305 96.6944 92.4049
threshold=1.0000000180025095e-35 1.0000000180025095e-35 1.0000000180025095e-35 1.0000000180025095e-35 1.0000000180025095e-35 1.0000000180025095e-35 1.0000000180025095e-35 1.0000000180025095e-35 0.050515683367848403 1.0000000180025095e-35 14.500000000000002 1.0000000180025095e-35 1.0000000180025095e-35 1.0000000180025095e-35 1.0000000180025095e-35 1.0000000180025095e-35 1.0000000180025095e-35 1.0000000180025095e-35 1.0000000180025095e-35 1.0000000180025095e-35 1.0000000180025095e-35 1.0000000180025095e-35 1.0000000180025095e-35 1.0000000180025095e-35 1.0000000180025095e-35 1.0000000180025095e-35 1.0000000180025095e-35 1.0000000180025095e-35 1.0000000180025095e-35 1.0000000180025095e-35
decision_type=2 2 2 2 2 2 2 2 2 2 2 2 2 2 2 2 2 2 2 2 2 2 2 2 2 2 2 2 2 2
left_child=2 3 6 4 5 7 9 15 11 12 18 13 21 17 25 24 28 20 19 -9 22 -1 -5 -14 -2 29 -24 -11 -12 -7
right_child=1 -3 -4 8 -6 14 -8 10 -10 27 16 -13 23 -15 -16 -17 -18 -19 -20 -21 -22 -23 26 -25 -26 -27 -28 -29 -30 -31
leaf_value=-1.0536582444075617 -0.99343326821352329 -1.0480554697401381 -1.0613271672056299 -1.0079230063772389 -0.9704376787545379 -0.98155369967638972 -1.0524442510022036 -1.0087823848535435 -1.0025688083278281 -1.0085418952238878 -1.0011564463737705 -1.027953054386882 -1.0267684148570499 -0.98580799970625466 -0.96290844673182396 -1.0502434777318304 -1.0427624545355878 -1.0475971665847583 -1.0399980428951821 -1.0485096358402388 -1.0163714644838335 -1.0384916834247591 -0.99438489712384914 -0.98995563687218091 -1.0282911093438118 -1.0412786841499542 -0.9353014499203347 -0.96015233800089606 -1.0199966138185124 -0.99310099526169526
leaf_weight=1680.2433178424835 14166.709766149521 3455.895868062973 12177.340535402298 3132.1983633041382 2968.7883689403534 2149.6567411422729 6878.8321831226349 21574.282567977905 8995.5293712615967 379.55527353286743 37786.219333648682 3901.3702476024628 2153.4731104373932 761.53914570808411 675.49736523628235 124.89935874938965 222.04330444335938 292.12572240829468 345.20794987678528 208.51254057884216 7258.0405139923096 5253.4058060646057 270.26833462715149 238.34960961341858 238.00266695022583 103.04197096824646 100.96031498908997 149.18534517288208 693.5383837223053 8927.8755519390106
leaf_count=4843 40833 9961 35099 9028 8557 6196 19827 62184 25928 1094 108912 11245 6207 2195 1947 360 640 842 995 601 20920 15142 779 687 686 297 291 430 1999 25733
internal_value=-1.01277 -1.00361 -1.05024 -1.00228 -0.999896 -1.0009 -1.04217 -1.00266 -1.01096 -1.035 -1.00461 -1.01576 -1.03728 -1.01174 -0.989706 -0.994493 -1.00173 -1.01352 -1.00964 -1.00916 -1.0126 -1.04217 -1.00479 -1.0231 -0.994009 -0.991325 -0.978316 -0.994889 -1.0015 -0.99086
internal_weight=147263 118352 28910.4 114896 90184.3 87215.5 16733 75359.4 24712 9854.21 60829.8 15716.5 9325.47 11815.1 11856.1 14529.6 38701.8 11053.6 22128 21782.8 10761.5 6933.65 3503.43 2391.82 14404.7 11180.6 371.229 528.741 38479.8 11077.5
internal_count=424458 341129 83329 331168 259940 251383 48230 217210 71228 28403 175331 45300 26879 34055 34173 41879 111551 31860 63780 62785 31018 19985 10098 6894 41519 32226 1070 1524 110911 31929
is_linear=0
shrinkage=1


Tree=3
num_leaves=31
num_cat=0
split_feature=3 30 22 1 1 25 20 1 4 34 1 4 1 1 14 1 7 1 1 8 32 7 6 1 4 34 25 10 1 34
split_gain=45613.6 6433.83 3475.52 1221.36 1006.14 941.691 941.112 835.018 780.385 737.785 672.502 442.324 390.027 297.383 282.462 270.899 252.151 236.302 226.49 207.191 204.65 199.97 193.407 176.317 165.77 180.314 158.999 180.471 155.428 139.377
threshold=1.0000000180025095e-35 1.0000000180025095e-35 1.0000000180025095e-35 3.5000000000000004 3.5000000000000004 1.0000000180025095e-35 1.0000000180025095e-35 10.500000000000002 1.0000000180025095e-35 1.0000000180025095e-35 5.5000000000000009 1.0000000180025095e-35 1.0000000180025095e-35 1.5000000000000002 1.0000000180025095e-35 1.5000000000000002 1.0000000180025095e-35 1.5000000000000002 15.500000000000002 1.0000000180025095e-35 1.0000000180025095e-35 1.0000000180025095e-35 1.0000000180025095e-35 2.5000000000000004 1.0000000180025095e-35 1.0000000180025095e-35 1.0000000180025095e-35 1.0000000180025095e-35 18.500000000000004 1.0000000180025095e-35
decision_type=2 2 2 2 2 2 2 2 2 2 2 2 2 2 2 2 2 2 2 2 2 2 2 2 2 2 2 2 2 2
left_child=1 2 3 15 17 14 10 11 9 26 12 13 -2 -4 16 -1 -6 -3 -7 21 28 -9 29 -8 25 -21 -5 -28 -12 -15
right_child=6 4 7 8 5 18 23 19 -10 -11 20 -13 -14 22 -16 -17 -18 -19 -20 24 -22 -23 -24 -25 -26 -27 27 -29 -30 -31
leaf_value=0.16960850531729033 0.068603717477025331 0.1843843078688282 0.14315559121564722 0.13939884065894165 0.15019582145167609 0.091742140882570267 0.097615677770580195 -0.022253334954392495 -0.027580200817972769 0.038564500540998727 -0.024021434612122413 -0.030216154749610265 -0.010164447801794135 0.080090104122551437 0.01138835535993115 0.11208588768861361 0.11763868032334777 0.14394877941004175 0.046226399459711853 0.061845185581537267 -0.015573499487413149 0.049292493004000931 -0.0058111051732693273 0.013344028267268986 -0.031119604678532586 0.00088042030055650279 0.091695150085297716 0.016890801344618758 -0.030728405795674325 0.02879052048464802
leaf_weight=364.28552994132042 162.08898527920246 585.96072149276733 103.83586603403091 165.76932494342327 1170.0386834144592 1207.6096247136593 65.107952699065208 1296.9852818250656 195.57041448354721 924.69602757692337 15011.3660479635 146.49639834463596 5164.7389687746763 422.28862456977367 48.199963510036469 467.15140029788017 1209.4724014401436 942.42221456766129 353.27160401642323 243.52186165750027 3734.4713197946548 105.6175584346056 118.26623566448689 1329.6068854629993 135.22530892491341 241.63183727860451 1771.4862805008888 84.474419802427292 20345.672823816538 192.88030429184437
leaf_count=2189 1092 3493 658 1088 7301 7945 438 9647 1448 6489 111814 1084 38005 2863 334 3132 7749 5916 2361 1702 27752 735 865 9523 1002 1735 11676 564 152505 1353
internal_value=-6.717e-05 0.0846037 0.0527091 0.0834002 0.124957 0.11174 -0.0231642 0.0121508 0.0691402 0.07556 -0.0244341 0.0499357 -0.00776763 0.0639598 0.13122 0.137289 0.133647 0.159451 0.0814406 -0.00622391 -0.0267051 -0.0168659 0.0527477 0.017278 0.0178362 0.0314816 0.092481 0.0882904 -0.0278809 0.0640056
internal_weight=58310.2 12497.2 6980.18 3973.43 5516.98 3988.59 45813.1 3006.75 3142 2946.43 44418.3 983.767 5326.83 837.271 2427.71 831.437 2379.51 1528.38 1560.88 2022.98 39091.5 1402.6 733.435 1394.71 620.379 485.154 2021.73 1855.96 35357 615.169
internal_count=424458 83329 48230 26586 35099 25690 341129 21644 21265 19817 331168 6823 39097 5739 15384 5321 15050 9409 10306 14821 292071 10382 5081 9961 4439 3437 13328 12240 264319 4216
is_linear=0
shrinkage=0.05


Tree=4
num_leaves=31
num_cat=0
split_feature=34 0 1 3 9 14 11 6 2 9 14 6 16 2 0 1 20 1 3 2 36 19 4 5 30 9 1 5 20 3
split_gain=2063.28 1376.18 904.961 838.964 674.031 519.498 358.389 355.859 299.994 287.837 271.106 252.25 210.339 206.3 171.956 170.156 171.549 155.434 150.932 188.259 146.117 130.898 108.421 91.5688 91.3967 86.561 83.215 77.7641 77.6882 70.9439
threshold=1.0000000180025095e-35 2.5000000000000004 1.5000000000000002 1.0000000180025095e-35 1.0000000180025095e-35 1.0000000180025095e-35 1.0000000180025095e-35 1.0000000180025095e-35 1.0000000180025095e-35 1.0000000180025095e-35 1.0000000180025095e-35 1.0000000180025095e-35 1.0000000180025095e-35 1.0000000180025095e-35 2.5000000000000004 1.0000000180025095e-35 1.0000000180025095e-35 1.0000000180025095e-35 1.0000000180025095e-35 1.0000000180025095e-35 1.0000000180025095e-35 0.056830143555998809 1.0000000180025095e-35 1.0000000180025095e-35 1.0000000180025095e-35 1.0000000180025095e-35 1.5000000000000002 1.0000000180025095e-35 1.0000000180025095e-35 1.0000000180025095e-35
decision_type=2 2 2 2 2 2 2 2 2 2 2 2 2 2 2 2 2 2 2 2 2 2 2 2 2 2 2 2 2 2
left_child=2 4 17 22 5 7 9 13 10 11 21 12 27 15 -11 -2 20 -1 -13 -20 23 -5 -3 -17 -14 -23 -6 -4 -7 -18
right_child=1 3 6 8 26 28 -8 -9 -10 14 -12 18 24 -15 -16 16 29 -19 19 -21 -22 25 -24 -25 -26 -27 -28 -29 -30 -31
leaf_value=-0.054398935139932415 -0.039731127873178222 0.035253660491039049 -0.0065028446321977228 -0.0033149958946853846 -0.010498940171027787 -0.013908300404846613 -0.026194390548667741 0.035683036542200779 0.025726857539914369 0.0086354925209063509 -0.026703288891161133 0.025659578899501757 -0.022625331372839355 0.021134587520708049 -0.032865414673307371 0.0069174035749934044 0.010089528539620848 -0.027671055204620949 0.021434415376194494 -0.044422152135156413 0.0003753166138650257 -0.009863538296174432 -0.02980298748627527 0.030691294170151824 0.0090466849660910051 -0.034373542212387018 0.024367803873171407 0.0068872164219768829 0.025911854094760503 0.026562021962955436
leaf_weight=699.07433551549911 199.19961005449295 1365.5498600900173 41235.912864893675 13673.229464828968 175.94650700688362 3322.2545567452908 2116.3659214377403 1099.3711656033993 679.36190891265869 4594.9380729198456 1790.6600854694843 956.9850437939167 2702.66474583745 2474.6937735974789 263.9364196062088 47121.038500547409 1203.8562718033791 2451.2910742163658 228.38743975758553 206.75630596280098 9656.4538027048111 10148.243914633989 67.194295674562454 408.54158490896225 248.74631300568581 373.48390540480614 6247.4962842464447 1113.5934720039368 127.175632417202 1430.1300117373466
leaf_count=1866 532 3678 110437 36629 471 8891 5658 2959 1825 12330 4788 2574 7230 6650 706 126331 3236 6552 613 552 25866 27168 180 1096 667 1000 16798 2988 341 3846
internal_value=7.24856e-05 0.00434095 -0.00755744 -0.00507026 0.00794035 0.00645792 -0.0060286 0.00748299 -0.00707298 -0.00520073 -0.00793049 -0.00640594 -0.00705018 0.0069869 0.00638114 0.00640357 0.0065572 -0.033602 0.014558 -0.00985699 0.00598255 -0.00654113 0.0322026 0.00712175 -0.019956 -0.0107336 0.0234128 -0.00615075 -0.0124402 0.0190333
internal_weight=158383 101564 56818.7 28097.7 73466.2 67042.7 53668.3 63593.3 26665 51551.9 25985.6 46693 45300.9 62493.9 4858.87 60019.2 59820 3150.37 1392.13 435.144 57186 24195 1432.74 47529.6 2951.41 10521.7 6423.44 42349.5 3449.43 2633.99
internal_count=424458 272285 152173 75268 197017 179748 143755 170516 71410 138097 69585 125061 121322 167557 13036 160907 160375 8418 3739 1165 153293 64797 3858 127427 7897 28168 17269 113425 9232 7082
is_linear=0
shrinkage=0.05


Tree=5
num_leaves=31
num_cat=0
split_feature=3 4 20 0 34 39 2 16 13 1 39 19 2 1 28 27 13 20 35 5 5 33 16 10 2 19 4 10 16 22
split_gain=18530.1 2622.64 2575.47 2050.85 980.839 458.3 447.474 385.956 285.99 228.93 216.857 192.271 214.467 165.014 164.359 145.752 133.498 102.243 99.6604 83.3346 78.7095 73.3122 70.2303 69.1668 68.2527 67.3965 64.0622 61.2951 60.5565 60.2246
threshold=1.0000000180025095e-35 1.0000000180025095e-35 1.0000000180025095e-35 2.5000000000000004 1.0000000180025095e-35 1.0000000180025095e-35 1.0000000180025095e-35 1.0000000180025095e-35 1.0000000180025095e-35 14.500000000000002 1.0000000180025095e-35 0.056830143555998809 1.0000000180025095e-35 14.500000000000002 1.0000000180025095e-35 1.0000000180025095e-35 1.0000000180025095e-35 1.0000000180025095e-35 1.0000000180025095e-35 1.0000000180025095e-35 1.0000000180025095e-35 1.0000000180025095e-35 1.0000000180025095e-35 1.0000000180025095e-35 1.0000000180025095e-35 0.030006821267306808 1.0000000180025095e-35 1.0000000180025095e-35 1.0000000180025095e-35 1.0000000180025095e-35
decision_type=2 2 2 2 2 2 2 2 2 2 2 2 2 2 2 2 2 2 2 2 2 2 2 2 2 2 2 2 2 2
left_child=1 6 3 4 7 22 14 10 9 -7 21 12 16 29 19 17 18 -3 23 -1 -11 -2 27 28 25 -15 -20 -6 -5 -12
right_child=2 15 -4 11 5 8 -8 -9 -10 20 13 -13 -14 24 -16 -17 -18 -19 26 -21 -22 -23 -24 -25 -26 -27 -28 -29 -30 -31
leaf_value=-0.047267066343270429 0.02381493908583944 0.01769224419402254 -0.034204939367351854 0.015915180568299232 0.011211498273054867 -0.0047803176639574299 -0.022103478496984175 0.036375087434581864 0.02158643189695553 0.0025902608338956579 -0.017464374089516666 0.025994162408548467 -0.013150718178288055 0.019755023717447959 -0.037663330510125881 0.051474841018779999 0.039548983199690614 -0.025419573422661813 0.025404817433255802 -0.032569569677946213 -0.033077970661508187 -0.025046093966959584 0.033127137674101796 -0.022445955168800897 0.033991477329281955 0.010923436042236952 0.068859487336965855 -0.02223786816937837 0.037536848113504481 0.0059244330785354097
leaf_weight=12942.788830697536 4086.3700677454472 1501.4887707829475 3408.0711685419083 12844.725601971149 11073.583512753248 17571.650859028101 2963.7260857522488 1835.6351238191128 1548.5573615133762 29863.40612795949 284.70660468935966 12418.596587508917 541.19663152098656 3132.4423463344574 9552.7208867073059 302.84277710318565 742.93011254072189 151.39173039793968 2472.9365014433861 1042.1007001101971 155.47443953156471 78.239767700433731 363.55561888217926 115.23397719860077 430.58406388759613 6960.2030757069588 87.826397597789764 138.67384019494057 332.2095539867878 8269.9773441255093
leaf_count=38022 11680 4324 9961 36861 31762 50672 8642 5234 4427 85934 818 35541 1565 8966 27969 871 2112 442 7068 3059 448 225 1041 332 1231 19936 251 403 952 23709
internal_value=-5.13799e-05 -0.0362897 0.00863223 0.00989788 0.00598475 0.00254883 -0.0404132 0.0143032 0.000440403 -0.000247672 0.01256 0.0212568 0.0178238 0.0103035 -0.0427187 0.0195862 0.0188339 0.0137435 0.0178631 -0.0461719 0.00240553 0.022897 0.0114991 0.016123 0.0144962 0.0136645 0.0268952 0.0107978 0.0164603 0.00514604
internal_weight=147214 28457.1 118757 115349 85793.1 60714.9 26501.3 25078.2 49139.1 47590.5 23242.5 29555.7 17137.1 19077.9 23537.6 1955.72 16595.9 1652.88 15852.9 13984.9 30018.9 4164.61 11575.8 13292.2 10523.2 10092.6 2560.76 11212.3 13176.9 8554.68
internal_count=424458 83329 341129 331168 246486 174687 77692 71799 141481 137054 66565 84682 49141 54660 69050 5637 47576 4766 45464 41081 86382 11905 33206 38145 30133 28902 7319 32165 37813 24527
is_linear=0
shrinkage=0.05


Tree=6
num_leaves=31
num_cat=0
split_feature=3 34 4 1 25 20 1 22 6 1 1 11 1 32 1 1 13 13 1 1 24 22 23 11 8 39 32 8 1 1
split_gain=39752.3 4486.34 3894.31 1619.68 1398.85 893.726 657.205 620.045 546.995 339.08 315.152 289.755 244.652 202.186 187.544 185.616 172.672 169.087 157.952 155.462 148.121 139.331 138.116 129.114 119.768 116.727 113.577 101.084 99.7615 98.6391
threshold=1.0000000180025095e-35 1.0000000180025095e-35 1.0000000180025095e-35 3.5000000000000004 1.0000000180025095e-35 1.0000000180025095e-35 5.5000000000000009 1.0000000180025095e-35 1.0000000180025095e-35 1.0000000180025095e-35 15.500000000000002 1.0000000180025095e-35 1.5000000000000002 1.0000000180025095e-35 13.500000000000002 6.5000000000000009 1.0000000180025095e-35 1.0000000180025095e-35 8.5000000000000018 18.500000000000004 1.0000000180025095e-35 1.0000000180025095e-35 1.0000000180025095e-35 1.0000000180025095e-35 1.0000000180025095e-35 1.0000000180025095e-35 1.0000000180025095e-35 1.0000000180025095e-35 1.5000000000000002 1.0000000180025095e-35
decision_type=2 2 2 2 2 2 2 2 2 2 2 2 2 2 2 2 2 2 2 2 2 2 2 2 2 2 2 2 2 2
left_child=1 2 3 12 11 6 9 15 10 -2 16 17 29 19 27 -3 25 20 -7 24 -5 -12 -15 -14 -8 -6 -11 -9 -28 -1
right_child=5 7 -4 4 8 18 13 14 -10 26 21 -13 23 22 -16 -17 -18 -19 -20 -21 -22 -23 -24 -25 -26 -27 28 -29 -30 -31
leaf_value=0.17503485854088185 0.061210953899996125 0.071982002850358717 -0.030031145974116415 0.089641239371129652 0.059644094989599862 0.043829840146367677 -0.026065277210761004 0.0057993447241586546 0.0017713987111223229 -0.013153383500705674 0.063175617396549102 0.13826125576078094 0.11223387120886828 -0.015781691927529349 -0.014907483949079162 0.031467630402324288 0.024098955561114521 0.005986881282650949 0.0061822586119801015 -0.030417461319164986 0.11652328133387513 0.025583839235318397 0.14443845751053863 0.15334387533204688 -0.015265905481136516 0.087153356114091515 0.045276833438169697 0.055365983753158848 -0.0007941022603966619 0.14047894552946735
leaf_weight=274.03683565557003 173.54160349071026 404.69410075247288 635.55599633604288 903.76590131223202 454.85470765829086 380.95792990922928 11360.696887969971 280.62847220897675 292.10034218430519 4276.7636182457209 642.5547441393137 791.57237747311592 1314.1770263463259 3667.1725305765867 1035.2979740425944 937.88262284547091 129.9919158667326 44.134511336684227 1036.9872580319643 19767.654521711171 1183.4178612977266 399.89802052080631 13.500373482704161 223.47067232429981 3316.930143430829 2533.170141518116 141.35100860893726 162.37552289664745 696.4580557346344 838.08208376169205
leaf_count=1383 1092 2547 4735 5373 2788 2628 86556 1982 2081 31835 3941 4235 7603 27652 7715 6322 830 267 7333 152505 6685 2753 100 1190 25258 15493 1024 1080 5146 4326
internal_value=-0.000127552 0.0751539 0.0899908 0.0975997 0.0855536 -0.0227658 -0.0240417 0.0190818 0.067911 -0.00752336 0.0725546 0.112429 0.131129 -0.0263328 -0.00325789 0.0436799 0.0805115 0.102835 0.016297 -0.027523 0.104883 0.0487549 -0.015194 0.118209 -0.0236248 0.0829657 -0.00985557 0.0239671 0.00697876 0.148994
internal_weight=58313.7 13481.7 10660.8 10025.2 7375.46 44832 43414.1 2820.88 4452.57 5288.11 4160.47 2922.89 2649.77 38126 1478.3 1342.58 3118.02 2131.32 1417.95 34445.3 2087.18 1042.45 3680.67 1537.65 14677.6 2988.02 5114.57 443.004 837.809 1112.12
internal_count=424458 83329 63683 58948 44446 341129 331168 19646 27886 39097 25805 16560 14502 292071 10777 8869 19111 12325 9961 264319 12058 6694 27752 8793 111814 18281 38005 3062 6170 5709
is_linear=0
shrinkage=0.05


Tree=7
num_leaves=31
num_cat=0
split_feature=34 0 1 2 9 14 6 11 6 9 14 6 2 16 0 1 1 22 3 2 36 7 19 5 9 25 2 3 19 14
split_gain=1872.06 1193.69 814.336 756.253 620.861 476.64 411.085 331.446 323.088 259.731 245.57 225.076 189.198 181.694 156.396 154.326 143.561 139.213 133.771 174.509 124.979 113.918 107.651 89.3315 89.0461 81.0846 79.0082 98.1639 85.8741 78.6907
threshold=1.0000000180025095e-35 2.5000000000000004 1.5000000000000002 1.0000000180025095e-35 1.0000000180025095e-35 1.0000000180025095e-35 1.0000000180025095e-35 1.0000000180025095e-35 1.0000000180025095e-35 1.0000000180025095e-35 1.0000000180025095e-35 1.0000000180025095e-35 1.0000000180025095e-35 1.0000000180025095e-35 2.5000000000000004 1.0000000180025095e-35 1.0000000180025095e-35 1.0000000180025095e-35 1.0000000180025095e-35 1.0000000180025095e-35 1.0000000180025095e-35 1.0000000180025095e-35 0.056830143555998809 1.0000000180025095e-35 1.0000000180025095e-35 1.0000000180025095e-35 1.0000000180025095e-35 1.0000000180025095e-35 0.030317392200231556 1.0000000180025095e-35
decision_type=2 2 2 2 2 2 2 2 2 2 2 2 2 2 2 2 2 2 2 2 2 2 2 2 2 2 2 2 2 2
left_child=2 4 16 6 5 8 10 9 12 11 22 13 15 21 -11 -2 -1 -17 -13 -20 -19 23 -3 26 -24 -15 28 -28 -4 -23
right_child=1 3 7 -5 -6 -7 -8 -9 -10 14 -12 18 -14 25 -16 17 -18 20 19 -21 -22 29 24 -25 -26 -27 27 -29 -30 -31
leaf_value=-0.051841235681822265 -0.037858964489239089 -0.0031849853063198896 -0.011825137935686483 0.030849546968222005 0.022392110800076748 -0.012001117686630024 0.035223581324684984 -0.025102805867728551 0.034033225990943793 0.0082350325427506168 -0.025264639931788326 0.024259579970826079 0.020175082299107989 0.024236067804703002 -0.031308662775498097 0.014807068173921467 -0.026167616190881472 0.0065876758320008505 0.020959688270765917 -0.042450375560260378 0.00024727324956207115 -0.00098845780809382676 -0.0090189328825449108 0.0099794513462588223 -0.033895469679738478 -0.020261023439687623 0.015092700589811015 -0.0088374279558108126 -0.0062554775143939985 0.038080707872321366
leaf_weight=699.68348211050034 199.4690814614296 13743.062039494514 10055.974925905466 1428.0214682817459 6402.1351087093353 3451.545806735754 577.63940009474754 2119.1357615292072 1092.5108543336391 4590.1430757939816 1795.4929722249508 952.41369864344597 2467.3598181009293 106.19496777653694 264.4459730386734 4350.0009239315987 2455.130462884903 46066.255756169558 228.08824136853218 206.95062398910522 9349.675345659256 7520.6004163920879 10196.912273943424 752.64351084828377 372.88323554396629 2849.9188326597214 849.70278027653694 864.62776243686676 22196.385138094425 131.13004782795906
leaf_count=1866 532 36793 26901 3860 17269 9232 1564 5658 2959 12330 4793 2574 6650 285 706 11716 6552 123620 613 552 25039 20161 27262 2021 996 7612 2282 2314 59394 352
internal_value=9.11297e-05 0.00415988 -0.00717358 -0.00460048 0.00751627 0.00609433 -0.00649748 -0.00572288 0.00707752 -0.0049265 -0.00742055 -0.00607039 0.00660582 -0.0066776 0.00608095 0.0060475 -0.0318616 0.00619403 0.0137667 -0.00920486 0.00551793 -0.00584145 -0.00610277 -0.00705855 -0.00989653 -0.0186625 -0.00743608 0.00302347 -0.00799204 -0.000318918
internal_weight=158336 101493 56843.2 28114 73379 66976.8 26686 53688.4 63525.3 51569.2 26108.4 46714.6 62432.8 45327.2 4854.59 59965.4 3154.81 59765.9 1387.45 435.039 55415.9 42371.1 24312.9 34719.3 10569.8 2956.11 33966.7 1714.33 32252.4 7651.73
internal_count=424458 272285 152173 75268 197017 179748 71408 143755 170516 138097 69844 125061 167557 121322 13036 160907 8418 160375 3739 1165 148659 113425 65051 92912 28258 7897 90891 4596 86295 20513
is_linear=0
shrinkage=0.05


Tree=8
num_leaves=31
num_cat=0
split_feature=22 30 0 14 9 6 30 20 8 6 39 2 4 4 14 35 8 28 1 35 2 32 21 16 15 2 4 10 35 35
split_gain=14623.3 2379.99 1759.54 1161.09 1057.9 809.885 796.497 741.35 480.282 455.457 438.308 422.802 411.709 391.083 330.896 307.357 239.694 195.791 186.435 146.53 141.491 132.937 122.147 115.447 113.98 105.913 116.621 108.616 101.354 91.2579
threshold=1.0000000180025095e-35 1.0000000180025095e-35 2.5000000000000004 1.0000000180025095e-35 1.0000000180025095e-35 1.0000000180025095e-35 1.0000000180025095e-35 1.0000000180025095e-35 1.0000000180025095e-35 1.0000000180025095e-35 1.0000000180025095e-35 1.0000000180025095e-35 1.0000000180025095e-35 1.0000000180025095e-35 1.0000000180025095e-35 1.0000000180025095e-35 1.0000000180025095e-35 1.0000000180025095e-35 14.500000000000002 1.0000000180025095e-35 1.0000000180025095e-35 1.0000000180025095e-35 1.0000000180025095e-35 1.0000000180025095e-35 1.0000000180025095e-35 1.0000000180025095e-35 1.0000000180025095e-35 1.0000000180025095e-35 1.0000000180025095e-35 1.0000000180025095e-35
decision_type=2 2 2 2 2 2 2 2 2 2 2 2 2 2 2 2 2 2 2 2 2 2 2 2 2 2 2 2 2 2
left_child=6 2 3 4 8 11 7 12 9 10 25 14 17 -10 29 18 24 -1 -12 -13 -15 -20 -19 -17 -5 27 -27 28 -2 -4
right_child=1 -3 5 16 -6 -7 -8 -9 13 -11 15 19 -14 20 -16 23 -18 22 21 -21 -22 -23 -24 -25 -26 26 -28 -29 -30 -31
leaf_value=-0.032154181372588096 0.015266969287231433 -0.034298373889271802 0.018580634547596658 0.03680326109339873 -0.019338852288729173 -0.028515658404912103 -0.04630206076453483 -0.035725941436380991 -0.0058961251710595809 -0.025052837714730665 -0.0006623751514654927 -0.016355536657752006 0.030163149920438132 0.028287661431922791 0.041306921756639081 0.0130991175329897 0.011437964465492429 -0.032116542687628903 0.0045973357109852031 0.022407810370816655 -0.037894340951328959 0.014491195144531286 -0.0046992554474842643 0.040153557678651884 -0.016383809098121493 -0.012213490127537141 0.067856174876978037 -0.02911626916221224 0.028516103926746545 0.026787524430785109
leaf_weight=1409.2016599774361 9543.0828021764755 3391.0907569825649 22195.571162343025 3387.5345970392227 4889.1596194803715 886.51067140698433 9828.7711835503578 9911.4810939729214 13644.373426675797 1123.0203107893467 16733.27081745863 1039.3137835264206 521.48782366514206 1138.3801893293858 1925.8625841140747 6694.2059539556503 1520.7774162888527 490.07557588815689 23146.27588430047 318.50844791531563 86.925075888633728 3978.7148256003857 2374.5179247260094 418.99906888604164 103.81669136881828 524.05907040834427 49.796980202198029 127.62568089365959 1700.7144652307034 3997.3340612351894
leaf_count=4163 27217 10015 63149 9601 14251 2619 29453 29532 39275 3320 48253 3055 1476 3258 5417 19065 4348 1441 66556 915 251 11334 6856 1175 295 1524 143 371 4811 11319
internal_value=-4.7526e-05 0.00700591 0.00818122 0.00462883 0.00323065 0.0185718 -0.0352823 -0.0279176 0.00462904 0.0065087 0.00707205 0.0199879 -0.0117782 -0.00346617 0.0213038 0.00505177 0.0280053 -0.0168959 0.00348814 -0.0072627 0.0235926 0.00604857 -0.00938981 0.0146927 0.0352217 0.0156927 -0.00526536 0.0167504 0.017271 0.0198331
internal_weight=147100 122565 119174 88810.7 83798.6 30363.1 24535.5 14706.8 78909.4 64039.8 62916.7 29476.6 4795.28 14869.7 28118.8 50971.5 5012.13 4273.8 43858.3 1357.82 1225.31 27125 2864.59 7113.21 3491.35 11945.3 573.856 11371.4 11243.8 26192.9
internal_count=424458 351537 341522 255048 240804 86474 72921 43468 226553 183769 180449 83855 13936 42784 79885 146383 14244 12460 126143 3970 3509 77890 8297 20240 9896 34066 1667 32399 32028 74468
is_linear=0
shrinkage=0.05


Tree=9
num_leaves=31
num_cat=0
split_feature=3 30 22 20 4 1 32 1 24 4 1 1 2 13 1 1 9 6 32 4 2 6 23 5 6 1 14 14 1 32
split_gain=35125.3 3534.83 2338.81 844.263 786.109 641.642 638.788 597.727 541.172 387.715 370.561 296.819 291.516 254.413 244.232 198.71 197.495 190.432 180.58 177.307 252.628 199.199 170.129 157.823 167.215 138.476 131.237 122.426 106.76 104.278
threshold=1.0000000180025095e-35 1.0000000180025095e-35 1.0000000180025095e-35 1.0000000180025095e-35 1.0000000180025095e-35 5.5000000000000009 1.0000000180025095e-35 3.5000000000000004 1.0000000180025095e-35 1.0000000180025095e-35 3.5000000000000004 1.0000000180025095e-35 1.0000000180025095e-35 1.0000000180025095e-35 15.500000000000002 18.500000000000004 1.0000000180025095e-35 1.0000000180025095e-35 1.0000000180025095e-35 1.0000000180025095e-35 1.0000000180025095e-35 1.0000000180025095e-35 1.0000000180025095e-35 1.0000000180025095e-35 1.0000000180025095e-35 8.5000000000000018 1.0000000180025095e-35 1.0000000180025095e-35 1.5000000000000002 1.0000000180025095e-35
decision_type=2 2 2 2 2 2 2 2 2 2 2 2 2 2 2 2 2 2 2 2 2 2 2 2 2 2 2 2 2 2
left_child=1 2 4 5 7 11 14 28 10 12 -3 -2 17 26 19 22 18 -8 -9 20 21 -4 -7 24 27 -5 -10 -12 -1 -13
right_child=3 8 6 25 -6 15 9 16 13 -11 23 29 -14 -15 -16 -17 -18 -19 -20 -21 -22 -23 -24 -25 -26 -27 -28 -29 -30 -31
leaf_value=0.12348043974423116 0.055021333768778408 0.10734681508247353 0.064019473630735166 0.040363906152728064 -0.025655156143283887 -0.022027806800349898 0.090700692484511763 0.060538237359224006 0.11225475873977719 -0.029450610589878492 0.079147332667023548 -0.012781667023050154 -0.0071724800243035446 0.013372075802993995 -0.017068156445939696 -0.029194275258264915 0.046487557336291736 0.013454391230718319 0.091849962650004391 -0.032900280806002068 -0.012158433217131791 -0.01136377348365236 0.10993949842699401 0.026655970595580614 0.021483402712810577 0.0056813971834462707 0.018545428799164456 -0.0093962572561114358 0.090670146439218877 0.0064409615934364617
leaf_weight=459.92564232647419 184.33595888316631 950.12393137812614 391.05688893795013 396.79233667254448 217.0989203453064 16267.117139309645 481.97857885062695 1323.4766821116209 3088.2155434638262 135.05470836162567 2216.8981745690107 4221.4303117990494 121.91477862000465 68.014719054102898 1309.1248172596097 20921.682066194713 1302.841006487608 95.613194912672043 706.14516645669937 152.74322654306889 279.26183019578457 112.94618886709213 24.458981014788151 187.51970431208611 141.11020220816135 1047.7849047034979 37.81972973048687 39.738957330584526 537.88879653811455 847.08399705588818
leaf_count=2119 1092 4656 2389 2628 1649 126309 2781 7945 15133 1042 12407 31835 828 380 9894 165587 7896 683 3976 1186 2002 839 175 1139 925 7333 225 234 3001 6170
internal_value=-0.000184634 0.067709 0.0444045 -0.0223823 0.0671901 -0.023661 0.0107599 0.0718449 0.094122 0.0481095 0.0806448 -0.00730241 0.0630842 0.10904 -0.00312376 -0.0259701 0.06168 0.0779135 0.0714322 0.0163792 0.0259891 0.0471262 -0.0218297 0.0708315 0.0742863 0.0152079 0.111121 0.0775881 0.105793 -0.00956905
internal_weight=58267.2 14356.5 7627.07 43910.7 4547.38 42466.1 3079.69 4330.28 6729.44 834.561 3535.39 5252.85 699.507 3194.05 2245.13 37213.3 3332.46 577.592 2029.62 936.008 783.265 504.003 16291.6 2585.27 2397.75 1444.58 3126.04 2256.64 997.814 5068.51
internal_count=424458 83329 48230 341129 26586 331168 21644 24937 35099 5334 19361 39097 4292 15738 16310 292071 19817 3464 11921 6416 5230 3228 126484 14705 13566 9961 15358 12641 5120 38005
is_linear=0
shrinkage=0.05


Tree=10
num_leaves=31
num_cat=0
split_feature=34 0 1 2 8 24 3 3 16 1 39 1 7 8 2 4 39 8 16 30 10 23 1 20 20 30 27 3 25 3
split_gain=1699.91 1041.35 727.813 674.187 498.943 259.644 238.576 230.223 219.865 170.991 133.068 130.595 117.864 99.4421 147.911 88.2908 85.6146 84.6768 82.1801 74.2503 72.6858 72.6676 69.6874 67.7753 67.3157 67.0761 65.6007 65.307 64.1072 63.738
threshold=1.0000000180025095e-35 2.5000000000000004 1.5000000000000002 1.0000000180025095e-35 1.0000000180025095e-35 1.0000000180025095e-35 1.0000000180025095e-35 1.0000000180025095e-35 1.0000000180025095e-35 1.0000000180025095e-35 1.0000000180025095e-35 1.0000000180025095e-35 1.0000000180025095e-35 1.0000000180025095e-35 1.0000000180025095e-35 1.0000000180025095e-35 1.0000000180025095e-35 1.0000000180025095e-35 1.0000000180025095e-35 1.0000000180025095e-35 1.0000000180025095e-35 1.0000000180025095e-35 4.5000000000000009 1.0000000180025095e-35 1.0000000180025095e-35 1.0000000180025095e-35 1.0000000180025095e-35 1.0000000180025095e-35 1.0000000180025095e-35 1.0000000180025095e-35
decision_type=2 2 2 2 2 2 2 2 2 2 2 2 2 2 2 2 2 2 2 2 2 2 2 2 2 2 2 2 2 2
left_child=2 4 11 7 6 8 26 15 12 -6 20 -1 13 14 16 -3 -4 27 28 23 -8 -15 -14 -12 -11 -9 -2 -10 -7 -13
right_child=1 3 5 -5 9 18 10 25 17 24 19 29 22 21 -16 -17 -18 -19 -20 -21 -22 -23 -24 -25 -26 -27 -28 -29 -30 -31
leaf_value=-0.049234357495578265 0.022622998517781424 0.028789325482922352 -0.013467356381122082 0.029393821771469042 -0.050281304447359454 -0.018149686051051692 -0.0016351797132215598 -0.0069482426861084126 -0.0046632971015966264 0.012839681044153926 0.0048057671529045769 -0.030211042566379 -0.0062030797672867569 -0.00043553068828053798 0.009946967999181721 -0.033934691828566038 -0.0057668279510481278 -0.0067545776979864155 0.023508143856824936 0.029781654167900257 0.045292650043145498 -0.024425266458782326 0.0057756733921148252 0.024480770040793565 0.020009220071887976 0.021188982567162173 -0.0053358894648957138 -0.028193088547552772 0.0022903855280969059 -0.012898475816219033
leaf_weight=698.08064019680023 2206.4770011007786 607.01389381289482 4456.6851642727852 1419.0973184704781 102.64587625861168 5031.5253964364529 9849.353210747242 25818.527043431997 364.8337841629982 14793.533817917109 41064.908456653357 1678.3737422227859 1609.5788669884205 13364.742999255657 1323.9540125131607 61.81662181019783 18988.016791462898 1207.530158251524 130.83934056758881 304.85868576169014 83.211354523897171 323.30385076999664 4942.0993507802486 442.42100638151169 4204.4498662948608 213.5613157749176 231.84666773676872 1538.2457495033741 415.26228311657906 778.10889706015587
leaf_count=1866 5982 1658 11916 3860 274 13449 26369 69012 976 39837 110275 4476 4311 35829 3554 165 50797 3228 351 823 225 864 13263 1202 11403 573 627 4104 1113 2076
internal_value=0.000111183 0.00399132 -0.0068097 -0.0041884 0.00713 -0.00543849 0.00468046 -0.00597322 -0.00425476 0.0140786 0.00396024 -0.0301504 -0.00336624 -0.00442234 -0.00631246 0.0229921 -0.00723065 -0.017111 -0.0156507 0.00519605 -0.00124204 -0.00100215 0.0028328 0.00501548 0.0144264 -0.00671741 0.0199645 -0.0236823 -0.0165913 -0.0247272
internal_weight=158255 101404 56851.2 28120 73283.7 53696.6 54183.1 26700.9 48119 19100.6 51744.8 3154.56 45008.4 38456.7 24768.7 668.831 23444.7 3110.61 5577.63 41812.2 9932.56 13688 6551.68 41507.3 18998 26032.1 2438.32 1903.08 5446.79 2456.48
internal_count=424458 272285 152173 75268 197017 143755 145503 71408 128842 51514 138894 8418 120534 102960 66267 1823 62713 8308 14913 112300 26594 36693 17574 111477 51240 69585 6609 5080 14562 6552
is_linear=0
shrinkage=0.05


Tree=11
num_leaves=31
num_cat=0
split_feature=30 20 7 0 9 14 6 34 2 8 14 16 6 8 6 2 2 25 8 35 19 9 6 1 16 5 2 12 10 35
split_gain=10073.9 6277.71 1864.42 1564.42 1132.59 1019.64 711.621 570.509 366.605 322.534 290.224 248.383 220.438 208.336 204.984 173.577 149.093 147.605 143.11 133.029 129.374 144.513 118.525 117.777 110.025 108.755 104.765 97.3333 88.4548 83.4263
threshold=1.0000000180025095e-35 1.0000000180025095e-35 1.0000000180025095e-35 2.5000000000000004 1.0000000180025095e-35 1.0000000180025095e-35 1.0000000180025095e-35 1.0000000180025095e-35 1.0000000180025095e-35 1.0000000180025095e-35 1.0000000180025095e-35 1.0000000180025095e-35 1.0000000180025095e-35 1.0000000180025095e-35 1.0000000180025095e-35 1.0000000180025095e-35 1.0000000180025095e-35 1.0000000180025095e-35 1.0000000180025095e-35 1.0000000180025095e-35 0.056830143555998809 1.0000000180025095e-35 1.0000000180025095e-35 14.500000000000002 1.0000000180025095e-35 1.0000000180025095e-35 1.0000000180025095e-35 1.0000000180025095e-35 1.0000000180025095e-35 1.0000000180025095e-35
decision_type=2 2 2 2 2 2 2 2 2 2 2 2 2 2 2 2 2 2 2 2 2 2 2 2 2 2 2 2 2 2
left_child=1 2 3 4 5 7 8 11 10 12 20 13 15 14 17 23 -15 -1 -7 -10 29 -22 -18 -9 -2 26 27 -19 -25 -5
right_child=24 -3 -4 6 -6 18 -8 9 19 -11 -12 -13 -14 16 -16 -17 22 25 -20 -21 21 -23 -24 28 -26 -27 -28 -29 -30 -31
leaf_value=-0.036164610456836006 -0.042868566328010602 -0.034625523059041381 -0.038518522340037359 0.014032111401033609 -0.017482062306311281 0.033424738470094965 -0.026940887646919695 0.00099099847092777647 -0.01514465428599614 -0.0067255521190713614 0.038489873537908184 0.029589686972217883 -0.025104069627427963 -0.0012462561956367859 -0.021275270111989885 -0.012290065806614521 0.0093691566150637812 0.015249786822436008 0.013384011463382597 0.021631626059431364 0.021518085431500491 0.04964816618363696 0.059957782621959922 0.0066446989111251381 -0.012996292673297081 -0.023359910028511049 -0.0024840081213636403 -0.024221902436031346 -0.027893742912652571 0.024016062856571978
leaf_weight=150.87102833390236 12643.852196782827 9741.7098655998707 2204.2382810115814 12779.157210797071 5471.9461916089058 3584.8390709757805 872.88548117876053 15359.275749444962 1042.7152811288834 9215.8070562183857 1986.998528689146 1657.2915242314339 663.02049887180328 5223.4529693424702 445.33876910805702 1590.7478862702847 329.99808043241501 16028.769964128733 1185.3636348843575 321.77694237232208 11087.900062382221 476.17645290493965 178.36250329017639 28410.008389860392 315.94682040810585 197.76148030161858 919.59551796317101 157.71843901276588 186.59454390406609 2502.031887114048
leaf_count=448 38514 29532 6570 36239 16104 10050 2623 44267 3104 26670 5514 4633 2000 14952 1330 4673 945 45372 3351 919 31209 1328 496 81397 954 582 2657 460 541 7024
internal_value=-4.65329e-05 0.0040254 0.00705627 0.00787951 0.00457071 0.00598233 0.0175661 0.00465481 0.0188526 0.00181534 0.0200511 0.010878 0.00351869 0.00956575 0.0122223 0.00393535 0.00126945 0.013077 0.0284448 -0.00647201 0.0186863 0.0226764 0.0271186 0.00452254 -0.0421403 0.0135063 0.0139325 0.0148652 0.00641933 0.0156668
internal_weight=146932 133972 124231 122026 90956.8 85484.8 31069.6 80714.6 30196.8 55425.5 28832.3 25289.2 46209.6 23631.9 17900.1 45546.6 5731.81 17454.7 4770.2 1364.49 26845.3 11564.1 508.361 43955.9 12959.8 17303.8 17106.1 16186.5 28596.6 15281.2
internal_count=424458 384990 355458 348888 260928 244824 87960 231423 85337 159548 81314 71875 132878 67242 50849 130878 16393 49519 13401 4023 75800 32537 1441 126205 39468 49071 48489 45832 81938 43263
is_linear=0
shrinkage=0.05


Tree=12
num_leaves=31
num_cat=0
split_feature=3 34 4 1 20 25 1 1 6 1 1 32 11 1 1 13 1 13 1 8 8 13 11 7 8 8 7 20 32 9
split_gain=31189.5 2832.71 2645.08 878.231 800.545 763.8 627.692 489.479 381.372 263.556 206.15 200.041 156.74 155.362 150.557 128.026 122.592 120.571 130.042 119.738 119.277 110.894 109.685 109.113 102.501 101.567 106.087 98.7761 97.7922 96.5158
threshold=1.0000000180025095e-35 1.0000000180025095e-35 1.0000000180025095e-35 3.5000000000000004 1.0000000180025095e-35 1.0000000180025095e-35 5.5000000000000009 15.500000000000002 1.0000000180025095e-35 1.0000000180025095e-35 15.500000000000002 1.0000000180025095e-35 1.0000000180025095e-35 18.500000000000004 1.5000000000000002 1.0000000180025095e-35 2.5000000000000004 1.0000000180025095e-35 1.0000000180025095e-35 1.0000000180025095e-35 1.0000000180025095e-35 1.0000000180025095e-35 1.0000000180025095e-35 1.0000000180025095e-35 1.0000000180025095e-35 1.0000000180025095e-35 1.0000000180025095e-35 1.0000000180025095e-35 1.0000000180025095e-35 1.0000000180025095e-35
decision_type=2 2 2 2 2 2 2 2 2 2 2 2 2 2 2 2 2 2 2 2 2 2 2 2 2 2 2 2 2 2
left_child=1 2 3 17 6 12 9 14 10 -2 15 13 21 19 -3 -7 -6 18 -1 -8 23 -5 -20 -16 -9 26 27 -12 -11 -22
right_child=4 7 -4 5 16 8 11 24 -10 28 25 -13 -14 -15 20 -17 -18 -19 22 -21 29 -23 -24 -25 -26 -27 -28 -29 -30 -31
leaf_value=0.13047375124405078 0.050185476389211552 0.089921139283793888 -0.029583529738472725 0.081560386425997902 0.075734674887537878 0.067538640312116704 -0.025365720100436608 -0.017579485517447455 0.0011411703847991476 -0.012414615708640045 -0.011462641902269685 -0.014359020015408798 0.10379555061670687 -0.029815282976578546 -0.00083040621942629973 0.018868843772740881 0.010902752734861609 0.041373665617923758 0.093383288585605129 -0.014367810897937459 0.054098519614784783 0.0035090693761769282 0.12119203384942008 0.051814940811488491 0.011843207881458489 0.053961957833881261 0.047530130521096052 0.08417562958408728 0.0061786522917729996 0.022551146445154838
leaf_weight=335.84253585338593 193.65004549920559 115.744737803936 610.17022416740656 2463.8931277096272 76.952271297574043 3394.698847681284 10855.504136495292 782.66435870528221 296.17544439435005 4167.94162543118 213.89807462692261 3566.2675539329648 968.75084653496742 18695.098767101765 409.290248721838 140.72062280774117 1390.3388446420431 86.906849414110184 2371.9604917317629 3205.700025588274 584.658084243536 46.364328891038895 416.9147482663393 129.58400191366673 476.05554784834385 652.68086668848991 237.18141216039658 30.897630989551544 851.69344665110111 414.20578020066023
leaf_count=1337 1092 563 4735 12058 438 18281 86556 5998 2081 31835 1503 27752 4235 152505 2890 830 9523 413 10982 25258 3595 267 1770 753 3239 3691 1330 170 6170 2608
internal_value=-0.000244024 0.0613734 0.0718975 0.0772095 -0.0219938 0.0687462 -0.023276 0.0170426 0.0561608 -0.00705173 0.0596501 -0.0256046 0.0867117 -0.0268289 0.0349277 0.0656014 0.0143029 0.0994645 0.10108 -0.0228584 0.0307884 0.0801188 0.0975405 0.0118293 -0.00645164 0.0411068 0.0236987 0.000608632 -0.00925985 0.0410166
internal_weight=58182.4 15179.3 12267.1 11656.9 43003.1 8445.26 41535.9 2912.2 4966.25 5213.29 4670.08 36322.6 3479.01 32756.3 1653.48 3535.42 1467.29 3211.62 3124.72 14061.2 1537.74 2510.26 2788.88 538.874 1258.72 1134.66 481.977 244.796 5019.64 998.864
internal_count=424458 83329 63683 58948 341129 44446 331168 19646 27886 39097 25805 292071 16560 264319 10409 19111 9961 14502 14089 111814 9846 12325 12752 3643 9237 6694 3003 1673 38005 6203
is_linear=0
shrinkage=0.05


Tree=13
num_leaves=31
num_cat=0
split_feature=34 0 1 3 9 14 11 14 9 16 8 3 0 1 1 30 39 4 4 7 5 1 30 1 27 4 10 10 14 8
split_gain=1541.71 903.139 659.61 601.366 501.686 381.051 277.975 214.342 205.732 155.491 151.36 187.424 132.381 121.619 103.732 100.116 100.847 96.9512 83.8502 83.6462 78.7535 70.9257 70.3806 67.4491 62.0467 64.9534 61.255 60.9377 79.2844 109.004
threshold=1.0000000180025095e-35 2.5000000000000004 1.5000000000000002 1.0000000180025095e-35 1.0000000180025095e-35 1.0000000180025095e-35 1.0000000180025095e-35 1.0000000180025095e-35 1.0000000180025095e-35 1.0000000180025095e-35 1.0000000180025095e-35 1.0000000180025095e-35 2.5000000000000004 1.0000000180025095e-35 1.0000000180025095e-35 1.0000000180025095e-35 1.0000000180025095e-35 1.0000000180025095e-35 1.0000000180025095e-35 1.0000000180025095e-35 1.0000000180025095e-35 1.5000000000000002 1.0000000180025095e-35 4.5000000000000009 1.0000000180025095e-35 1.0000000180025095e-35 1.0000000180025095e-35 1.0000000180025095e-35 1.0000000180025095e-35 1.0000000180025095e-35
decision_type=2 2 2 2 2 2 2 2 2 2 2 2 2 2 2 2 2 2 2 2 2 2 2 2 2 2 2 2 2 2
left_child=2 4 13 18 5 10 8 -5 9 19 11 24 -10 -1 -12 16 26 -16 -3 20 27 -6 -11 -21 -2 -26 -13 28 -4 -30
right_child=1 3 6 7 21 -7 -8 -9 12 22 14 15 -14 -15 17 -17 -18 -19 -20 23 -22 -23 -24 -25 25 -27 -28 -29 29 -31
leaf_value=-0.047159457332460547 0.022482526833035765 0.030853552218249071 -0.0049040238690998194 -0.0042508755773546531 -0.011141129379814797 -0.010685358752949037 -0.022890987037508786 -0.02203460725680494 0.0073747921720882089 -0.018848572910904811 -0.048781937942151576 -0.00079756245051352355 -0.028994808609246921 -0.023466331883858271 0.012444390903996308 0.029549659166532013 0.0054110052078217806 -0.011754685239536371 -0.026288477576462965 -0.0078699014862181876 0.0099638289703374728 0.021086191836718546 0.008822598433224917 0.0027531472812233242 0.0095977825435168175 -0.054196887817120946 0.043383730669357176 -0.013078913637164525 -0.025680833731846004 0.0046579144551035017
leaf_weight=694.91092100739479 1926.3267756998539 1336.7197384238243 30906.33164358139 24897.675059020519 175.58336952328682 3455.9869486987591 2121.2553406655788 1818.0657885968685 4578.1905973553658 2719.0466413199902 71.497073620557785 9086.9776158332825 264.66488245129585 2455.4072896242142 12085.810176342726 395.93377536535263 39088.589379012585 428.57752478122711 67.438586890697479 2015.0695444345474 784.39508131146431 6169.1146444380283 251.00679364800453 5781.0161042511463 168.6807509958744 52.262173235416412 79.13533091545105 2838.6454455554485 1023.6216326355934 416.54374676942825
leaf_count=1866 5249 3678 82678 66559 471 9232 5658 4851 12330 7255 191 24331 706 6552 32637 1076 105063 1155 180 5393 2110 16798 674 15520 458 140 216 7586 2731 1114
internal_value=0.000133251 0.00383138 -0.00645664 -0.00378478 0.00675775 0.0054823 -0.00515216 -0.0054611 -0.00442262 -0.00543913 0.00636384 0.00514764 0.00538717 -0.0286927 0.0112725 0.00450958 0.00430413 0.0116157 0.0281091 -0.00468783 -0.00570548 0.0201943 -0.01651 7.38704e-06 0.0196041 -0.00549231 -0.000416125 -0.0060548 -0.00543838 -0.0169059
internal_weight=158154 101304 56850.1 28119.9 73184.5 66839.8 53699.8 26715.7 51578.5 46735.7 63383.8 50797.9 4842.86 3150.32 12585.9 48650.6 48254.7 12514.4 1404.16 43765.6 35969.5 6344.7 2970.05 7796.09 2147.27 220.943 9166.11 35185.1 32346.5 1440.17
internal_count=424458 272285 152173 75268 197017 179748 143755 71410 138097 125061 170516 136533 13036 8418 33983 130686 129610 33792 3858 117132 96219 17269 7929 20913 5847 598 24547 94109 86523 3845
is_linear=0
shrinkage=0.05


Tree=14
num_leaves=31
num_cat=0
split_feature=3 4 20 0 14 9 34 30 14 8 16 19 30 8 4 22 9 27 30 1 1 35 10 34 19 20 15 8 5 6
split_gain=14711.7 2173.24 1972.49 1428.98 948.052 819.152 563.53 394.473 298.385 236.394 170.987 166.558 164.358 159.239 158.332 135.345 131.909 125.437 116.538 110.226 108.982 97.6927 80.1634 78.2047 78.198 75.1776 74.5793 72.7453 70.8491 69.8775
threshold=1.0000000180025095e-35 1.0000000180025095e-35 1.0000000180025095e-35 2.5000000000000004 1.0000000180025095e-35 1.0000000180025095e-35 1.0000000180025095e-35 1.0000000180025095e-35 1.0000000180025095e-35 1.0000000180025095e-35 1.0000000180025095e-35 0.056830143555998809 1.0000000180025095e-35 1.0000000180025095e-35 1.0000000180025095e-35 1.0000000180025095e-35 1.0000000180025095e-35 1.0000000180025095e-35 1.0000000180025095e-35 14.500000000000002 14.500000000000002 1.0000000180025095e-35 1.0000000180025095e-35 1.0000000180025095e-35 0.048894321545958526 1.0000000180025095e-35 1.0000000180025095e-35 1.0000000180025095e-35 1.0000000180025095e-35 1.0000000180025095e-35
decision_type=2 2 2 2 2 2 2 2 2 2 2 2 2 2 2 2 2 2 2 2 2 2 2 2 2 2 2 2 2 2
left_child=1 7 3 4 5 6 10 15 11 18 12 21 20 23 24 -1 -13 25 19 -8 27 29 -21 -6 -11 -3 -25 -2 -9 -5
right_child=2 17 -4 8 13 -7 9 28 -10 14 -12 16 -14 -15 -16 -17 -18 -19 -20 22 -22 -23 -24 26 -26 -27 -28 -29 -30 -31
leaf_value=-0.035899598434533615 0.0095931682246451107 0.014916199457365553 -0.030934728936774555 0.011871413821042995 0.042780131111332963 -0.016825687162899391 0.00071141674449360563 -0.045348861039361567 0.036214864450572447 -0.010401757873064139 0.029154427844496386 0.019934155040391411 -0.018148795518592425 0.012560719381914191 0.027927891574594434 -0.025949066472221824 0.045974246213596845 0.046204033270868097 -0.024696927589588993 0.0061190991399981296 0.014566904461835875 0.02205813582312615 -0.026944041545471437 0.02841809716966838 -0.00059067256627749699 -0.022620075305194096 -0.023167266036688516 -0.0014041729382461351 -0.029249522349037646 -0.026414300341367034
leaf_weight=8065.0134806931019 7056.3341589570045 1528.6194884181023 3248.6362411677837 13334.676268488169 1132.7733344435692 4473.6050444841385 15648.947299569845 10410.158964633942 2077.7294815778732 5042.8903242647648 1338.9002825319767 11496.637530654669 481.46791252493858 1510.412356287241 348.75235524773598 5930.1098083555698 507.81110686063766 311.29462218284607 354.14011409878731 29063.350930988789 11764.054763019085 2634.4762122631073 184.49144250154495 2390.6086994707584 3400.4475317895412 146.14364278316498 72.18119865655899 1910.9626277983189 731.38523477315903 120.25495791435242
leaf_count=24937 19926 4324 9961 37679 3136 13228 45110 32616 5723 14654 3702 32169 1405 4295 1008 17859 1404 871 1055 83151 33124 7352 541 6661 9843 442 203 5444 2280 355
internal_value=-4.6868e-05 -0.0332937 0.00749314 0.00856613 0.00528731 0.00397115 0.00518581 -0.037272 0.0179309 0.00241537 0.0118249 0.0165787 0.0107311 0.0261843 -0.00508679 -0.0316833 0.0210357 0.0170582 0.00387301 0.00409837 0.0114018 0.0132532 0.00591054 0.0319072 -0.00645047 0.0116407 0.0269062 0.0072496 -0.044292 0.0115292
internal_weight=146717 27122.7 119595 116346 86174.3 81068.3 76594.7 25136.7 30171.6 54043 22551.7 28093.9 21212.8 5105.98 8792.09 13995.1 12004.4 1986.06 45250.9 44896.8 20731.4 16089.4 29247.8 3595.56 8443.34 1674.76 2462.79 8967.3 11141.5 13454.9
internal_count=424458 83329 341129 331168 246486 232191 218963 77692 84682 155362 63601 78959 59899 14295 25505 42796 33573 5637 129857 128802 58494 45386 83692 10000 24497 4766 6864 25370 34896 38034
is_linear=0
shrinkage=0.05


Tree=15
num_leaves=31
num_cat=0
split_feature=3 2 4 6 1 1 22 34 13 1 24 1 22 0 21 0 25 34 8 0 23 8 17 21 39 1 14 9 17 9
split_gain=28247.3 2532.11 2360.93 1435.87 756.19 713.821 491.095 483.802 289.081 281.956 251.646 215.871 161.409 144.546 137.95 132.998 132.166 128.665 124.604 115.265 108.786 93.8667 89.2367 79.174 74.6173 73.3451 71.7477 71.2595 70.6482 69.8985
threshold=1.0000000180025095e-35 1.0000000180025095e-35 1.0000000180025095e-35 1.0000000180025095e-35 13.500000000000002 5.5000000000000009 1.0000000180025095e-35 1.0000000180025095e-35 1.0000000180025095e-35 1.5000000000000002 1.0000000180025095e-35 1.5000000000000002 1.0000000180025095e-35 2.5000000000000004 1.0000000180025095e-35 1.5000000000000002 1.0000000180025095e-35 1.0000000180025095e-35 1.0000000180025095e-35 2.5000000000000004 1.0000000180025095e-35 1.0000000180025095e-35 1.0000000180025095e-35 1.0000000180025095e-35 1.0000000180025095e-35 1.5000000000000002 1.0000000180025095e-35 1.0000000180025095e-35 1.0000000180025095e-35 1.0000000180025095e-35
decision_type=2 2 2 2 2 2 2 2 2 2 2 2 2 2 2 2 2 2 2 2 2 2 2 2 2 2 2 2 2 2
left_child=1 2 3 5 6 11 14 8 10 15 22 -1 23 18 20 -8 26 -5 24 21 25 -14 29 -6 -11 -2 -13 -9 -12 -7
right_child=4 -3 -4 17 12 7 9 27 -10 13 28 16 19 -15 -16 -17 -18 -19 -20 -21 -22 -23 -24 -25 -26 -27 -28 -29 -30 -31
leaf_value=0.099549844628512962 0.087684772173713607 -0.013328345912817733 -0.028791040911514201 0.021198364473065626 0.00072716868246091378 0.065643142122599696 0.049101317848794748 0.040789284259457381 0.004970253867750983 -0.028349169213393557 0.084132286562004485 0.089526364313957066 -0.027388272653916551 -0.027511627459618139 -0.0080014256326423911 0.0018101790734398146 0.070063263821170729 -0.01944648163211668 -0.0047520093976894974 -0.032942511997446487 0.12408396801085458 -0.018790981583861582 0.026310021656139534 -0.024324178613021968 -0.015399208018683481 0.022339164147935714 0.014542852658925324 0.015914630792450795 0.0056705904455152207 0.048850631062733428
leaf_weight=1557.5029377192259 45.57185473293066 1205.2708472162485 682.33201266080141 381.76772920787334 768.36103535443544 3338.7195037603378 186.72597774863243 802.24065382778645 189.04517610371113 1345.9327591657639 1862.7887179106474 1721.6601815670729 14465.793540403247 2714.1447235271335 346.69773235172033 729.47827744483948 2389.1595569998026 397.38747852295637 2470.2521867007017 7236.2253227457404 29.387833192944527 4067.6311547234654 177.45092007517815 535.01312067359686 6409.5974951907992 744.01523031294346 32.504186168313026 449.0947901904583 29.138473063707352 760.92731626331806
leaf_count=6004 231 8733 5416 2357 5290 16810 1192 4865 1067 10762 7936 7325 120288 21711 2699 5292 11783 3045 19444 60132 199 33476 918 4428 50933 4946 171 2851 134 3993
internal_value=-0.000247078 0.0563563 0.0620421 0.066441 -0.0217308 0.0703029 -0.0127341 0.0602807 0.0658738 -0.0153563 0.0677401 0.0836805 -0.0267226 -0.0172542 0.018435 0.0114483 0.0777151 0.000468537 -0.0145316 -0.0275909 0.0296263 -0.0255014 0.0610238 -0.00955599 -0.0176466 0.0261107 0.0881369 0.031862 0.0829239 0.0625263
internal_weight=58071.8 15977 14771.7 14089.4 42094.8 13310.2 15021.8 7609.41 6358.07 13856.1 6169.02 5700.83 27073 12939.9 1165.67 916.204 4143.32 779.155 10225.8 25769.7 818.975 18533.4 4277.1 1303.37 7755.53 789.587 1754.16 1251.34 1891.93 4099.65
internal_count=424431 83408 74675 69259 341023 63857 117409 38574 30858 109334 29791 25283 223614 102850 8075 6484 19279 5402 81139 213896 5376 153764 21721 9718 61695 5177 7496 7716 8070 20803
is_linear=0
shrinkage=0.05


Tree=16
num_leaves=31
num_cat=0
split_feature=34 0 2 9 14 11 6 6 6 14 9 2 16 0 32 8 4 19 3 2 10 19 31 19 5 9 2 8 33 3
split_gain=1379.29 730.3 558.964 421.016 357.863 342.528 310.501 253.724 219.385 175.728 159.579 137.522 119.767 115.646 112.8 105.964 167.492 103.738 98.7926 148.538 90.8059 88.5803 83.305 69.6647 69.4033 68.7761 67.2631 64.7028 63.8955 63.5699
threshold=1.0000000180025095e-35 2.5000000000000004 1.0000000180025095e-35 1.0000000180025095e-35 1.0000000180025095e-35 1.0000000180025095e-35 1.0000000180025095e-35 1.0000000180025095e-35 1.0000000180025095e-35 1.0000000180025095e-35 1.0000000180025095e-35 1.0000000180025095e-35 1.0000000180025095e-35 2.5000000000000004 1.0000000180025095e-35 1.0000000180025095e-35 1.0000000180025095e-35 0.056830143555998809 1.0000000180025095e-35 1.0000000180025095e-35 1.0000000180025095e-35 0.056620471179485328 1.0000000180025095e-35 0.048894321545958526 1.0000000180025095e-35 1.0000000180025095e-35 1.0000000180025095e-35 1.0000000180025095e-35 1.0000000180025095e-35 1.0000000180025095e-35
decision_type=2 2 2 2 2 2 2 2 2 2 2 2 2 2 2 2 2 2 2 2 2 2 2 2 2 2 2 2 2 2
left_child=5 3 6 4 7 8 9 11 10 17 12 15 14 29 21 20 23 -3 -10 -20 22 26 24 -17 -2 -19 27 -1 -14 -12
right_child=1 2 -4 -5 -6 -7 -8 -9 18 -11 13 -13 28 -15 -16 16 -18 25 19 -21 -22 -23 -24 -25 -26 -27 -28 -29 -30 -31
leaf_value=-0.0045615312822140132 0.0035793577551743263 -0.0016478927377335294 0.027480955677128147 0.018581231916219319 -0.010578350933624123 -0.024537037534217571 0.031716150970298576 0.030002037922675848 0.022292952302093088 -0.020702866304158903 -0.00015744930829292048 0.017153898164589381 -0.017526053007461011 -0.029326850078518554 -0.0089291835533796739 0.013644523897995531 -0.02465685385235955 -0.0074483086715468293 0.019974930891797867 -0.036570519671542311 0.031040888907824367 -0.0087919271182789506 0.044951184221985623 0.0056470142312948293 0.02623488520526944 -0.028989502028732784 0.012424596434397974 0.0021869704532242375 0.023863980252540384 0.011606227412250144
leaf_weight=12947.759688824415 47284.699807137251 13752.239895939827 1408.8445600867271 6338.4943697154522 3452.7379127144814 2413.0527336299419 568.74073168635368 1077.9911935031414 1025.9884905219078 1800.0083982050419 3023.8682301342487 2446.5559131503105 2995.3487957417965 269.6572437286377 19412.081793755293 6705.7498028874397 351.37547734379768 10219.654393821955 258.82785034179688 210.67084130644798 308.97735732793808 6701.0302833914757 122.94993144273758 4584.6306357979774 340.47685167193413 384.48285174369812 765.60571911931038 4894.4292968809605 96.239360898733139 1851.67868745327
leaf_count=34605 127066 36757 3877 17351 9219 6441 1579 2976 2794 4807 8138 6656 8000 720 51939 18161 943 27273 699 563 840 17916 331 12398 923 1026 2053 13112 259 5009
internal_value=0.000127123 0.00362977 -0.00321455 0.00626702 0.00509638 -0.00610307 -0.0048327 0.0059524 -0.00528618 -0.00562741 -0.00581951 0.00553523 -0.00671988 0.00254736 -0.00606191 0.00505908 0.00933901 -0.00451329 0.0135996 -0.00539783 0.00402228 -0.00386269 0.00384744 0.010397 0.00374132 -0.00822935 -0.00208758 -0.0027103 -0.0162376 0.00431026
internal_weight=158015 101149 28134 73014.6 66676.1 56866.2 26725.1 63223.4 54453.2 26156.4 52957.7 62145.4 47812.5 5145.2 44720.9 59698.9 11641.8 24356.4 1495.49 469.499 48057.1 25308.8 47748.1 11290.4 47625.2 10604.1 18607.8 17842.2 3091.59 4875.55
internal_count=424431 272183 75319 196864 179513 152248 71442 170294 145807 69863 141751 167318 127884 13867 119625 160662 31502 65056 4056 1262 129160 67686 128320 30559 127989 28299 49770 47717 8259 13147
is_linear=0
shrinkage=0.05


Tree=17
num_leaves=31
num_cat=0
split_feature=3 20 14 25 7 9 20 34 19 36 1 16 1 36 35 2 36 16 19 10 5 36 10 27 17 2 16 15 7 12
split_gain=13776.1 1816 1144.54 570.203 523.636 512.576 491.618 378.391 301.451 236.912 218.664 194.962 182.45 127.459 117.597 113.335 112.868 120.34 106.22 104.971 86.1191 81.9971 81.649 81.3153 77.0371 74.9829 70.5533 70.3815 66.6588 62.0835
threshold=1.0000000180025095e-35 1.0000000180025095e-35 1.0000000180025095e-35 1.0000000180025095e-35 1.0000000180025095e-35 1.0000000180025095e-35 1.0000000180025095e-35 1.0000000180025095e-35 0.061552813276648528 1.0000000180025095e-35 14.500000000000002 1.0000000180025095e-35 14.500000000000002 1.0000000180025095e-35 1.0000000180025095e-35 1.0000000180025095e-35 1.0000000180025095e-35 1.0000000180025095e-35 0.06800504028797151 1.0000000180025095e-35 1.0000000180025095e-35 1.0000000180025095e-35 1.0000000180025095e-35 1.0000000180025095e-35 1.0000000180025095e-35 1.0000000180025095e-35 1.0000000180025095e-35 1.0000000180025095e-35 1.0000000180025095e-35 1.0000000180025095e-35
decision_type=2 2 2 2 2 2 2 2 2 2 2 2 2 2 2 2 2 2 2 2 2 2 2 2 2 2 2 2 2 2
left_child=3 2 5 -1 6 7 11 12 13 10 18 14 16 -7 23 19 17 28 -9 -12 26 -10 25 -5 27 -11 -14 29 -2 -4
right_child=1 -3 24 4 -6 8 -8 9 21 22 15 -13 20 -15 -16 -17 -18 -19 -20 -21 -22 -23 -24 -25 -26 -27 -28 -29 -30 -31
leaf_value=-0.044673172871474598 0.0049151124163107247 -0.029857894664695541 0.027609074769154252 -0.023391242250679085 -0.041684644438039868 -0.016090398422570477 -0.03386413221205091 -0.00085038524062046826 0.0085107958624049268 0.012942938680289557 0.0073801466174874021 0.013879355732576152 0.01588097621739484 0.0081695493133050866 -0.007705834759697514 -0.0097925142934813386 0.020041284849569886 0.026331310527872215 0.0091696851660348789 -0.028423275639457901 -0.025499197210008845 0.040618320884249555 -0.037576040580911602 -0.0033349989461670618 0.057763110501902006 -0.0080929000417865604 0.030610449250234095 -0.012713827173925994 -0.034556259930780604 -0.02875144214963838
leaf_weight=7113.0077515542507 8906.6547838449478 3218.0236036479473 6889.4099790751934 4770.4273758530617 5226.2848426401615 4101.6393618881702 6152.567121297121 18480.036989510059 709.76476687192917 13031.527166634798 40381.297528028488 540.26676669716835 14541.493677377701 623.75078055262566 2282.682971149683 1005.7438948750496 1669.6140074729919 674.84095650911331 3086.6324414610863 205.76401734352112 121.83180171251297 276.24247205257416 82.694625288248062 565.25727385282516 203.7081241607666 437.85968562960625 861.12951567769051 112.17944744229317 108.26296272873878 49.210447520017624
leaf_count=22774 25123 10016 19044 14640 16610 12149 19443 53166 2048 36792 114930 1530 40693 1826 6702 2960 4667 1853 8814 600 351 777 248 1709 559 1280 2358 314 316 139
internal_value=-3.91931e-05 0.00719483 0.00821778 -0.0325521 -0.0281392 0.00694137 -0.0231926 0.00774532 -0.00764088 0.00595642 0.00466931 -0.015145 0.0128498 -0.0128881 -0.0172033 0.00678778 0.00803448 0.00596563 0.000583692 0.00719863 0.0163733 0.0175061 0.011955 -0.0212665 0.02745 0.0122591 0.0167045 0.0265742 0.00444109 0.0272094
internal_weight=146430 119779 116561 26650.5 19537.5 109307 14311.2 103595 5711.4 76711.6 63159.5 8158.63 26883.8 4725.39 7618.37 41592.8 11359.4 9689.76 21566.7 40587.1 15524.5 986.007 13552.1 5335.68 7254.51 13469.4 15402.6 7050.8 9014.92 6938.62
internal_count=424431 341023 331007 83408 60634 310951 44024 294151 16800 218790 180470 24581 75361 13975 23051 118490 31959 27292 61980 115530 43402 2825 38320 16349 20056 38072 43051 19497 25439 19183
is_linear=0
shrinkage=0.05


Tree=18
num_leaves=31
num_cat=0
split_feature=3 2 4 6 1 1 22 34 1 13 24 1 5 22 0 22 21 5 8 0 0 9 8 9 7 23 7 16 21 39
split_gain=25308.7 2142.54 2032.24 1163.46 741.407 582.557 458.222 381.779 268.293 243.317 200.648 184.13 164.248 157.871 143.459 124.355 122.633 121.993 121.698 117.648 117.32 97.7594 94.3708 89.7504 98.3684 88.7388 81.9765 80.4813 74.6498 72.7172
threshold=1.0000000180025095e-35 1.0000000180025095e-35 1.0000000180025095e-35 1.0000000180025095e-35 13.500000000000002 5.5000000000000009 1.0000000180025095e-35 1.0000000180025095e-35 1.5000000000000002 1.0000000180025095e-35 1.0000000180025095e-35 1.5000000000000002 1.0000000180025095e-35 1.0000000180025095e-35 2.5000000000000004 1.0000000180025095e-35 1.0000000180025095e-35 1.0000000180025095e-35 1.0000000180025095e-35 1.5000000000000002 2.5000000000000004 1.0000000180025095e-35 1.0000000180025095e-35 1.0000000180025095e-35 1.0000000180025095e-35 1.0000000180025095e-35 1.0000000180025095e-35 1.0000000180025095e-35 1.0000000180025095e-35 1.0000000180025095e-35
decision_type=2 2 2 2 2 2 2 2 2 2 2 2 2 2 2 2 2 2 2 2 2 2 2 2 2 2 2 2 2 2
left_child=1 2 3 5 6 11 16 9 19 10 12 -1 23 28 18 -5 25 21 29 -8 22 26 -15 24 -7 -2 -13 -12 -6 -10
right_child=4 -3 -4 15 13 7 8 -9 14 -11 27 17 -14 20 -16 -17 -18 -19 -20 -21 -22 -23 -24 -25 -26 -27 -28 -29 -30 -31
leaf_value=0.089624345768471156 0.024472338385486438 -0.012992161993976379 -0.028571683173759705 0.039731240365068039 0.00054157790513602983 0.072254063403155877 0.045660403033361649 0.029897011372351501 -0.027994886878663867 0.004177318704120552 0.075677411985189291 0.083670250170054292 0.013715462940047388 -0.027036938195584555 -0.027216442121260821 -0.009565312267938884 -0.0077262016926574438 0.036318560337737192 -0.0044575884675641169 0.0018367351228754675 -0.032728015053985891 0.053979088919598739 -0.018317867727583561 0.043076272529735338 0.054719118305654249 0.10899852762452074 0.06835278207157211 -0.0038368819902286746 -0.023935586031381247 -0.015044822474265333
leaf_weight=1658.8909432590008 808.36633716523647 1190.9629026353359 670.08479441702366 161.76186919212341 771.62560470402241 1270.180241599679 193.87173031270504 1284.2333357855678 1308.3733863607049 192.00468748807907 1982.7122378498316 1613.2233502715826 224.32747410237789 14083.018754437566 2654.778484351933 611.6713310033083 343.82719914615154 252.27610144019127 2450.272244386375 729.04113285243511 7031.5092976093292 629.27160675823689 3980.571521602571 851.48684641718864 2159.7957808375359 32.291022121906281 1904.8992800712585 32.342367976903915 522.35854399204254 6321.410250172019
leaf_count=6004 5177 8733 5416 875 5290 6080 1192 7716 10762 1067 7924 6795 1168 120288 21711 4527 2699 1172 19444 5292 60132 3099 33476 4296 10177 199 8213 146 4428 50933
internal_value=-0.000313869 0.0516342 0.0566001 0.0604488 -0.021342 0.0637341 -0.0124018 0.0548741 -0.0149891 0.0596525 0.0612859 0.0754289 0.0554206 -0.0263704 -0.0168756 0.000744954 0.0174302 0.0700766 -0.0141522 0.0110426 -0.0272485 0.07213 -0.0251156 0.0576057 0.0612126 0.0277191 0.0753766 0.0744012 -0.00933942 -0.0172655
internal_weight=57921.4 16690.1 15499.2 14829.1 41231.3 14055.6 14842.2 7997.08 13657.7 6712.85 6520.84 6058.56 4505.79 26389.1 12734.8 773.433 1184.48 4399.67 10080.1 922.913 25095.1 4147.39 18063.6 4281.46 3429.98 840.657 3518.12 2015.05 1293.98 7629.78
internal_count=424431 83408 74675 69259 341023 63857 117409 38574 109334 30858 29791 25283 21721 223614 102850 5402 8075 19279 81139 6484 213896 18107 153764 20553 16257 5376 15008 8070 9718 61695
is_linear=0
shrinkage=0.05


Tree=19
num_leaves=31
num_cat=0
split_feature=34 1 6 14 8 11 2 19 6 9 9 16 1 5 20 39 4 1 3 2 4 7 5 19 15 14 2 3 19 1
split_gain=1245.36 600.038 574.332 504.995 399.358 234.607 221.241 191.168 182.429 165.844 141.986 116.495 111.172 107.65 103.976 100.743 100.693 92.7961 91.6232 136.588 73.5758 73.1908 81.0847 70.0098 67.5695 66.3831 64.6308 77.8505 72.2556 62.6788
threshold=1.0000000180025095e-35 1.5000000000000002 1.0000000180025095e-35 1.0000000180025095e-35 1.0000000180025095e-35 1.0000000180025095e-35 1.0000000180025095e-35 0.052682977169752128 1.0000000180025095e-35 1.0000000180025095e-35 1.0000000180025095e-35 1.0000000180025095e-35 1.0000000180025095e-35 1.0000000180025095e-35 1.0000000180025095e-35 1.0000000180025095e-35 1.0000000180025095e-35 1.5000000000000002 1.0000000180025095e-35 1.0000000180025095e-35 1.0000000180025095e-35 1.0000000180025095e-35 1.0000000180025095e-35 0.073341481387615218 1.0000000180025095e-35 1.0000000180025095e-35 1.0000000180025095e-35 1.0000000180025095e-35 0.030317392200231556 4.5000000000000009
decision_type=2 2 2 2 2 2 2 2 2 2 2 2 2 2 2 2 2 2 2 2 2 2 2 2 2 2 2 2 2 2
left_child=1 12 3 4 6 8 10 17 9 11 13 21 -1 15 24 -2 -8 -6 -10 -20 -19 22 26 -17 -5 29 28 -28 -3 -23
right_child=2 5 -4 14 7 -7 16 -9 18 -11 -12 -13 -14 -15 -16 23 -18 20 19 -21 -22 25 -24 -25 -26 -27 27 -29 -30 -31
leaf_value=-0.04490327625628987 -0.0028149880677943457 -0.0099742509464254229 0.03027487075480197 -0.013587218295642568 -0.013920027304882038 -0.020735207004321077 0.018618581725454629 0.0033145537684709696 0.022328570308200443 0.0045080461217138247 0.022752626700493429 -0.014882057841034716 -0.022072727683366451 0.024162453984962442 0.024219163447210271 0.002679019173776 -0.026265635628692375 0.014644380925227169 0.019902019335331318 -0.035029041602921522 -0.0015924317463558481 -0.0084403571428406567 0.010542595113271332 -0.0029631076324361134 0.027557875656152555 0.035812388255654685 0.014464229384083597 -0.0068360573709204848 -0.0048657495424862095 0.0019291566314133719
leaf_weight=681.71022069454193 13314.018808454275 10052.594453275204 1962.1024333536625 5366.7489462792873 308.96561825275421 2142.6588726341724 2470.6936282217503 7494.9500007629395 980.59316167235374 4776.631514787674 776.8837862610817 2957.0596032440662 2447.8379167616367 509.08394518494606 196.25100469589233 48290.894270598888 131.61031728982925 13173.813539683819 251.9498770236969 205.44344872236252 736.72598645091057 1976.1069451868534 761.58914476633072 6204.5189036130905 101.67288547754288 125.92305076122284 833.18405798077583 884.22614142298698 22225.900404840708 5550.5406112670898
leaf_count=1851 35627 26847 5478 14347 831 5723 6791 20271 2686 12897 2137 7906 6546 1383 536 129681 357 35846 682 550 1995 5282 2049 16631 272 341 2244 2364 59381 14899
internal_value=0.000156367 -0.00576335 0.00348735 0.00295686 0.00383591 -0.0045236 0.00203674 0.00977647 -0.00385019 -0.00435373 0.00149772 -0.00528677 -0.0270459 0.00125602 -0.0115389 0.00108405 0.0163486 0.0131825 0.0137088 -0.0047709 0.0137845 -0.00461774 -0.00559237 0.00203664 -0.0128222 -0.000190992 -0.00595384 0.00349756 -0.00645671 -0.000793339
internal_weight=157893 56853.9 101039 99076.8 93412.2 53724.4 71697.7 21714.5 51581.7 50143.8 69095.4 45367.1 3129.55 68318.5 5664.67 67809.4 2602.3 14219.5 1437.99 457.393 13910.5 42410.1 34757.5 54495.4 5468.42 7652.57 33995.9 1717.41 32278.5 7526.65
internal_count=424431 152248 272183 266705 251550 143851 192607 58943 138128 134210 185459 121313 8397 183322 15155 181939 7148 38672 3918 1232 37841 113407 92885 146312 14619 20522 90836 4608 86228 20181
is_linear=0
shrinkage=0.05


Tree=20
num_leaves=31
num_cat=0
split_feature=3 4 20 0 14 9 34 2 14 30 19 30 4 1 2 27 27 9 16 1 5 5 35 10 20 31 19 30 10 19
split_gain=12718.1 1849.62 1673.9 1160.51 763.755 679.145 425.74 388.131 226.188 187.737 160.196 159.118 137.55 127.896 118.163 114.915 102.02 99.7724 85.7635 85.5783 84.7157 82.1879 79.3102 61.8201 60.6259 56.8444 56.0202 54.8327 53.5811 51.6672
threshold=1.0000000180025095e-35 1.0000000180025095e-35 1.0000000180025095e-35 2.5000000000000004 1.0000000180025095e-35 1.0000000180025095e-35 1.0000000180025095e-35 1.0000000180025095e-35 1.0000000180025095e-35 1.0000000180025095e-35 0.056830143555998809 1.0000000180025095e-35 1.0000000180025095e-35 14.500000000000002 1.0000000180025095e-35 1.0000000180025095e-35 1.0000000180025095e-35 1.0000000180025095e-35 1.0000000180025095e-35 14.500000000000002 1.0000000180025095e-35 1.0000000180025095e-35 1.0000000180025095e-35 1.0000000180025095e-35 1.0000000180025095e-35 1.0000000180025095e-35 0.027797094546258453 1.0000000180025095e-35 1.0000000180025095e-35 0.083449397236108794
decision_type=2 2 2 2 2 2 2 2 2 2 2 2 2 2 2 2 2 2 2 2 2 2 2 2 2 2 2 2 2 2
left_child=1 7 3 4 5 6 11 9 10 -1 14 12 18 27 22 24 25 -12 19 -2 -11 23 28 -15 -3 -14 -21 29 -5 -8
right_child=2 15 -4 8 -6 -7 13 -9 -10 20 17 -13 16 21 -16 -17 -18 -19 -20 26 -22 -23 -24 -25 -26 -27 -28 -29 -30 -31
leaf_value=-0.033071097280448963 0.0057101195601618193 0.012765644596673745 -0.029008978269954262 0.011265649929185205 0.023467057295325403 -0.015351534502813525 -0.0013250848447955406 -0.017903492059951186 0.031950050821104393 -0.043635823350156859 0.018390047967324078 -0.016914552620821897 0.022962271019423011 0.0044698555675588489 -0.011928423440164591 0.043042746280328621 0.058096003484782756 0.040430751217218175 0.023619970000330923 0.018556807602492956 -0.025747613856256714 -0.028510715604715756 0.020535945345158076 -0.025050035525093842 -0.022039222740131294 -0.045141834948425802 0.010339346213994115 -0.026701140228796168 -0.022463472589273979 0.0099746147676980455
leaf_weight=10819.853898435831 8601.6921944916248 1508.1563336849213 3169.7615512609482 12988.147933244705 5180.7786335647106 4437.8164419829845 17667.10006287694 2798.9776504039764 2121.6226854920387 9875.4301202297211 11615.647345483303 516.83964541554451 891.27792876958847 34694.835442721844 509.44283258914948 310.51427212357521 226.09976249933243 537.19758290052414 1131.4943273663521 2736.0918780863285 709.4117291867733 191.68814396858215 2589.3436010181904 178.26506716012955 136.43632638454437 31.730229109525681 8570.8403796553612 204.63461139798164 118.8218988776207 1073.0742957890034
leaf_count=34480 24182 4245 10016 36390 14304 13345 51049 8626 5752 32480 32194 1506 2480 99215 1515 857 625 1462 3081 7611 2299 567 7149 536 421 89 23906 622 341 3086
internal_value=-4.4542e-05 -0.0316342 0.00684259 0.00781543 0.00485426 0.00366603 0.00476615 -0.035413 0.0162028 -0.0377026 0.0150247 0.0105108 0.0111496 0.00235105 0.0117704 0.0151455 0.0279947 0.0193643 0.0102296 0.0094686 -0.0424369 0.00413949 0.0125396 0.00431896 0.00987821 0.0206211 0.0123278 -0.000959148 0.0109599 -0.000678057
internal_weight=146143 26158.8 119984 116814 86334.3 81153.5 76715.7 24203.7 30480.2 21404.7 28358.6 22706.1 22189.2 54009.6 16205.8 1955.11 1149.11 12152.8 21040.1 19908.6 10584.8 35064.8 15696.3 34873.1 1644.59 923.008 11306.9 18944.8 13107 18740.2
internal_count=424431 83408 341023 331007 246204 231900 218555 77885 84803 69259 79051 63480 61974 155075 45395 5523 3194 33656 58780 55699 34779 100318 43880 99751 4666 2569 31517 54757 36731 54135
is_linear=0
shrinkage=0.05


Tree=21
num_leaves=31
num_cat=0
split_feature=22 7 34 1 4 26 1 0 8 0 1 1 1 14 1 14 21 1 8 16 34 0 4 23 39 28 1 1 31 21
split_gain=19140 3433.76 2108.94 808.508 554.255 405.617 333.553 331.773 362.656 289.544 272.954 192.501 170.876 170.316 169.993 154.846 137.749 122.7 122.123 118.066 113.37 112.49 111.19 94.5314 74.912 74.3168 73.3036 72.4681 71.7184 71.5846
threshold=1.0000000180025095e-35 1.0000000180025095e-35 1.0000000180025095e-35 6.5000000000000009 1.0000000180025095e-35 1.0000000180025095e-35 3.5000000000000004 2.5000000000000004 1.0000000180025095e-35 1.5000000000000002 8.5000000000000018 1.5000000000000002 20.500000000000004 1.0000000180025095e-35 7.5000000000000009 1.0000000180025095e-35 1.0000000180025095e-35 15.500000000000002 1.0000000180025095e-35 1.0000000180025095e-35 1.0000000180025095e-35 1.5000000000000002 1.0000000180025095e-35 1.0000000180025095e-35 1.0000000180025095e-35 1.0000000180025095e-35 1.0000000180025095e-35 9.5000000000000018 1.0000000180025095e-35 1.0000000180025095e-35
decision_type=2 2 2 2 2 2 2 2 2 2 2 2 2 2 2 2 2 2 2 2 2 2 2 2 2 2 2 2 2 2
left_child=2 3 4 9 5 6 -1 8 21 11 29 -2 20 19 -3 17 28 23 26 27 22 -5 24 -8 -10 -16 -11 -7 -12 -4
right_child=1 14 10 7 -6 13 15 -9 12 18 16 -13 -14 -15 25 -17 -18 -19 -20 -21 -22 -23 -24 -25 -26 -27 -28 -29 -30 -31
leaf_value=0.068610154623633332 0.052846803567491586 0.064675833059379004 0.039325919412159738 -0.014663577076021648 -0.022462143627400077 0.075640826566555186 0.048104337331889346 -0.031907780755005451 -0.016187779234207597 0.029070812504214269 0.0090634277466113151 0.0065926381408300252 -0.020047135374126279 0.0033441309694297937 0.041605348111932949 -0.0059870604653245799 -0.017390256590874495 0.030217858499001687 0.0041515710112355149 0.010225511581851015 -0.010407715630103842 -0.025597863297103219 -0.032353091653912508 0.094706099762829177 0.017458070877114786 0.0067113231138420815 -0.015084905059757245 0.063344369482291302 0.12298501759057266 0.0082956628404669552
leaf_weight=1803.7492111176252 291.42106980085373 916.92493576556444 848.7186267003417 2739.2587959319353 212.51981783658266 3340.2955409437418 3185.6396939605474 8892.57669056952 194.54738418012857 96.445969685912132 1491.3271687999368 986.0818153694272 2546.8206560835242 96.71049589663744 716.81882307678461 154.65510255098343 652.25805046409369 1071.0397203713655 1233.3546075448394 80.539025545120239 2159.2011176422238 16646.92486666888 155.19656382501125 112.66949498653412 1105.5547120720148 193.85564786940813 3694.2644495666027 1868.4077700302005 13.944425843656061 237.97577672451735
leaf_count=7008 1548 3956 4676 22272 1697 12481 15362 77740 1501 532 9578 6985 21699 479 3583 863 5233 5676 9259 324 17779 144412 1295 537 8035 1264 29535 7455 82 1585
internal_value=-0.000384001 -0.0175692 0.0478388 -0.0205769 0.057562 0.0590138 0.0504299 -0.0235898 -0.0206944 -0.0041104 0.0120951 0.017144 -0.0101274 0.0690988 0.0494788 0.0431813 0.00180232 0.0449216 -0.00951491 0.0703011 -0.00313788 -0.0240529 0.00764824 0.0496962 0.0124233 0.0341774 -0.0139615 0.07123 0.0101188 0.0325306
internal_weight=57739.7 42569.2 15170.4 40741.6 11926.2 11713.7 6327.75 34440.1 25547.5 6301.57 3244.22 1277.5 6161.32 5385.95 1827.6 4524 2157.53 4369.35 5024.07 5289.24 3614.5 19386.2 1455.3 3298.31 1300.1 910.674 3790.71 5208.7 1505.27 1086.69
internal_count=424431 351395 73036 342592 51882 50185 29446 294733 216993 47859 21154 8533 50309 20739 8803 22438 14893 21575 39326 20260 28610 166684 10831 15899 9536 4847 30067 19936 9660 6261
is_linear=0
shrinkage=0.05


Tree=22
num_leaves=31
num_cat=0
split_feature=34 0 1 2 9 14 24 3 16 14 2 14 1 1 8 4 9 0 19 7 10 31 5 39 1 4 19 8 1 12
split_gain=1125.3 629.534 539.141 472.729 343.382 267.99 201.397 151.683 139.749 134.413 130.784 123.935 116.837 105.718 97.2659 154.438 95.8056 103.151 89.0965 87.4547 75.8915 76.0915 71.6241 70.8375 66.44 63.371 62.3025 61.8966 56.4026 55.5609
threshold=1.0000000180025095e-35 2.5000000000000004 1.5000000000000002 1.0000000180025095e-35 1.0000000180025095e-35 1.0000000180025095e-35 1.0000000180025095e-35 1.0000000180025095e-35 1.0000000180025095e-35 1.0000000180025095e-35 1.0000000180025095e-35 1.0000000180025095e-35 1.0000000180025095e-35 1.0000000180025095e-35 1.0000000180025095e-35 1.0000000180025095e-35 1.0000000180025095e-35 2.5000000000000004 0.056830143555998809 1.0000000180025095e-35 1.0000000180025095e-35 1.0000000180025095e-35 1.0000000180025095e-35 1.0000000180025095e-35 1.5000000000000002 1.0000000180025095e-35 0.048894321545958526 1.0000000180025095e-35 4.5000000000000009 1.0000000180025095e-35
decision_type=2 2 2 2 2 2 2 2 2 2 2 2 2 2 2 2 2 2 2 2 2 2 2 2 2 2 2 2 2 2
left_child=2 4 13 7 5 10 8 25 16 18 12 -8 -2 -1 20 26 19 -18 -9 22 21 23 -4 -14 -6 -3 -16 -10 -21 -20
right_child=1 3 6 -5 24 -7 11 9 27 -11 -12 -13 14 -15 15 -17 17 -19 29 28 -22 -23 -24 -25 -26 -27 -28 -29 -30 -31
leaf_value=-0.043170421426510841 -0.033900961522287283 0.024373570692151385 -0.0046291973123191643 0.025441081644862158 -0.01341448964447961 -0.0088112034718908581 -0.014434743610765799 -0.0014393513709084847 -0.019126618089451302 -0.018297744311591771 0.016479881981768463 0.032427397778239046 -4.0559376983477186e-05 -0.020816005191017051 0.013307861663873898 -0.02325689572647623 0.0062166357351184113 -0.025718637380849587 -0.0078384705509605412 -0.0061298084028199914 0.028866111314462428 0.043357736528434852 0.01137556108624555 0.0048356206664542144 0.017856948474187853 -0.028837715054381818 0.0057764015497269398 -0.0046581957875961475 0.0048031000840926871 0.037934501522292247
leaf_weight=675.09067845344543 192.1684367954731 590.55448105931282 33347.167577594519 1388.5656779110432 174.71597027778625 3452.233094394207 5472.684962451458 13689.639980942011 1893.6882740557194 1790.5965341329575 2598.3597000837326 144.82190972566605 9210.0161266028881 2442.0586903393269 6753.6893737316132 354.70248693227768 4308.653507143259 268.6183058321476 10507.241639077663 1566.8665180504322 308.88018932938576 122.51147916913033 714.00546613335609 38932.499662220478 6102.9203302562237 61.809112340211868 4627.2679154276848 1212.5078816115856 4774.0723229646683 66.717516332864761
leaf_count=1851 514 1677 89175 3877 469 9219 14626 36590 5073 4801 7142 392 24690 6546 18386 951 11661 719 28031 4188 850 332 1926 104882 16882 165 12547 3247 12844 178
internal_value=0.000186665 0.00335534 -0.00544159 -0.00300265 0.00580801 0.00475358 -0.00426818 -0.00448154 -0.00322163 -0.0050778 0.00549571 -0.0132266 0.00502398 -0.0256574 0.00514801 0.00923313 -0.00251328 0.00434251 -0.00410219 -0.00328999 0.00416102 0.00400292 -0.0042937 0.00390277 0.0169866 0.019332 0.0102457 -0.0134788 0.00210154 -0.00754966
internal_weight=157745 100925 56820.2 28095.1 72830 66552.3 53703.1 26706.6 48085.6 26054.2 63100.1 5617.51 60501.7 3117.15 60309.6 11735.7 44979.4 4577.27 24263.6 40402.1 48573.9 48265 34061.2 48142.5 6277.64 652.364 11381 3106.2 6340.94 10574
internal_count=424431 272183 152248 75319 196864 179513 143851 71442 128833 69600 170294 15018 163152 8397 162638 31884 120513 12380 64799 108133 130754 129904 91101 129572 17351 1842 30933 8320 17032 28209
is_linear=0
shrinkage=0.05


Tree=23
num_leaves=31
num_cat=0
split_feature=22 7 0 8 14 30 6 20 7 6 36 4 2 4 35 14 14 9 9 32 19 2 1 19 35 9 15 13 1 16
split_gain=10060.2 2144.29 1029.22 742.646 673.601 669.058 522.043 498.827 404.328 344.608 314.665 237.407 228.08 185.465 178.996 174.374 173.151 149.739 137.101 127.649 119.526 118.981 113.006 110.931 98.7518 95.9275 71.832 79.823 70.0074 64.0415
threshold=1.0000000180025095e-35 1.0000000180025095e-35 2.5000000000000004 1.0000000180025095e-35 1.0000000180025095e-35 1.0000000180025095e-35 1.0000000180025095e-35 1.0000000180025095e-35 1.0000000180025095e-35 1.0000000180025095e-35 1.0000000180025095e-35 1.0000000180025095e-35 1.0000000180025095e-35 1.0000000180025095e-35 1.0000000180025095e-35 1.0000000180025095e-35 1.0000000180025095e-35 1.0000000180025095e-35 1.0000000180025095e-35 1.0000000180025095e-35 0.038102498278021819 1.0000000180025095e-35 14.500000000000002 0.056830143555998809 1.0000000180025095e-35 1.0000000180025095e-35 1.0000000180025095e-35 1.0000000180025095e-35 14.500000000000002 1.0000000180025095e-35
decision_type=2 2 2 2 2 2 2 2 2 2 2 2 2 2 2 2 2 2 2 2 2 2 2 2 2 2 2 2 2 2
left_child=5 2 3 4 9 7 12 8 13 10 14 16 15 28 17 23 18 19 -5 22 -21 -13 -2 -4 -14 -25 27 -6 -1 -7
right_child=1 -3 6 11 26 29 -8 -9 -10 -11 -12 21 24 -15 -16 -17 -18 -19 -20 20 -22 -23 -24 25 -26 -27 -28 -29 -30 -31
leaf_value=-0.015371651766119022 -0.001806392584990484 -0.03839015563356727 0.012501333355032417 -0.0051483556206403996 0.022888765720753584 -0.042263043709998671 -0.02443834003990852 -0.03074025214030689 -0.038351229748951984 -0.021743348339305042 0.013441874083781367 0.016532995455112005 -0.012648345477468013 0.024717029590292695 0.011132126577213524 0.030461837854627239 0.010472126989123032 -0.027625152146944588 -0.015826057240133518 0.013395336943195963 0.00042093582330238058 -0.038425654863817396 0.0039551383246234908 0.017999393296289298 0.019070869952780106 0.040308671074811675 -0.014275937424558053 0.038604555916164372 -0.00038514641238517251 -0.015181050748909481
leaf_weight=1473.8668356835842 13178.415601015091 2713.8814143240452 15403.539344906807 13565.507686972618 2280.2562253773212 8548.7271932661533 843.97658482193947 9064.6352276802063 1027.0029909908772 1170.2668372392654 10740.94006767869 1627.4087710678577 999.68788248300552 523.12601783871651 7654.588347017765 2035.8700385689735 1449.2818429470062 399.07398957014084 3862.1286881268024 5153.8026521503925 2707.7339195609093 104.82286411523819 24028.717484474182 11195.918568909168 325.20444831252098 503.52086511254311 101.15538886189461 1251.3751322031021 1653.4980179965496 224.01344192028046
leaf_count=4413 38186 8803 42920 39344 6225 28768 2695 29551 3352 3709 30180 4623 3086 1443 21309 5484 4062 1228 11757 14408 7566 304 68681 30865 923 1360 285 3392 4776 733
internal_value=-4.98819e-05 0.00556235 0.00655156 0.00381603 0.00631438 -0.0307839 0.014352 -0.0238972 -0.0106359 0.00514394 0.00563663 -0.00450806 0.0154267 -0.00283866 0.00405847 0.0163492 -0.0061337 0.00286761 -0.00751464 0.00313762 0.00892659 0.0132073 0.00191446 0.0152891 -0.00486263 0.0189595 0.0272675 0.0284574 -0.007448 -0.0415715
internal_weight=145812 123297 120583 89275.5 68666.3 22514.9 31307.7 13742.1 4677.49 65033.5 63863.3 20609.1 30463.7 3650.49 53122.3 29138.8 18876.9 45467.7 17427.6 45068.7 7861.54 1732.23 37207.1 27103 1324.89 11699.4 3632.79 3531.63 3127.36 8772.74
internal_count=424431 351395 342592 255259 195169 73036 87333 43535 13984 185267 181558 60090 84638 10632 151378 80629 55163 130069 51101 128841 21974 4927 106867 75145 4009 32225 9902 9617 9189 29501
is_linear=0
shrinkage=0.05


Tree=24
num_leaves=31
num_cat=0
split_feature=3 2 4 6 20 32 13 34 16 24 8 5 23 12 34 39 39 39 9 23 19 32 34 9 5 19 9 19 10 17
split_gain=20811.4 1578.05 1555.61 826.652 610.559 358.364 356.774 289.769 201.575 185.937 185.734 180.877 130.081 109.737 105.295 96.0397 93.2279 86.3928 82.9624 74.1384 67.9974 162.433 64.6893 60.3363 74.4809 60.1157 64.672 56.7711 53.844 50.699
threshold=1.0000000180025095e-35 1.0000000180025095e-35 1.0000000180025095e-35 1.0000000180025095e-35 1.0000000180025095e-35 1.0000000180025095e-35 1.0000000180025095e-35 1.0000000180025095e-35 1.0000000180025095e-35 1.0000000180025095e-35 1.0000000180025095e-35 1.0000000180025095e-35 1.0000000180025095e-35 1.0000000180025095e-35 1.0000000180025095e-35 1.0000000180025095e-35 1.0000000180025095e-35 1.0000000180025095e-35 1.0000000180025095e-35 1.0000000180025095e-35 0.024982662871479992 1.0000000180025095e-35 1.0000000180025095e-35 1.0000000180025095e-35 1.0000000180025095e-35 0.023378958925604824 1.0000000180025095e-35 0.048282800242304809 1.0000000180025095e-35 1.0000000180025095e-35
decision_type=2 2 2 2 2 2 2 2 2 2 2 2 2 2 2 2 2 2 2 2 2 2 2 2 2 2 2 2 2 2
left_child=1 2 3 6 5 10 7 8 9 11 16 13 -7 17 -5 -12 -2 -1 20 -17 -19 -22 -6 24 -9 -3 -27 28 -20 -11
right_child=4 25 -4 14 22 12 -8 23 -10 29 15 -13 -14 -15 -16 19 -18 18 27 -21 21 -23 -24 -25 -26 26 -28 -29 -30 -31
leaf_value=0.043189090494418693 -0.031601918426220711 0.02091653531238221 -0.028050498373237517 0.018806255123281487 0.023327022987136535 -0.0089290960405237936 0.011020797666959669 0.047251630104523185 0.014788630922883012 0.067591676664237627 -0.028063431826711879 0.020859255305393971 0.10211042417102885 0.085687978544818841 -0.018189778452456212 -0.014108212250634525 -0.024112585150648649 0.052706533625597497 0.055120458895051211 0.103497417478326 0.05288793652224149 0.075816218427504037 0.0022472215920402738 0.023851775910138904 0.0029834654494328835 -0.019716949475474109 0.027043634304536331 0.030452253434665538 -0.0094457855289187733 0.021055202711621177
leaf_weight=1331.0258538126945 5169.6047126799822 122.83722573518753 641.79581078141928 394.63939197361469 569.61516760289669 4245.856495141983 470.65831354260445 1022.3105282187462 266.76313807070255 4381.374742642045 1480.4800125360489 385.51791866123676 26.540270626544952 298.13973236083984 375.15743988752365 5991.7864135429263 21177.587641663849 1886.2744742929935 923.73584826290607 13.430719308555124 1492.938060566783 1600.6192342787981 1007.9912267625332 633.5391106531024 104.75320576876402 951.93976867198944 80.170168198645115 400.93805412948132 33.459468945860863 59.318837136030197
leaf_count=5608 46123 850 5416 2357 3377 33905 2350 5438 1128 15494 12835 1787 143 1223 3045 51118 186797 7610 4063 86 6335 6458 6639 3613 617 7383 500 1754 155 224
internal_value=-0.00045051 0.0443743 0.0482827 0.051333 -0.0206224 -0.0218843 0.0538781 0.0552391 0.0578061 0.0587031 -0.0236074 0.0543079 -0.00823931 0.0559264 0.000776385 -0.0166572 -0.0255821 0.0547694 0.0572014 -0.0138452 0.0601888 0.0647511 0.00985836 0.0361975 0.0431372 -0.0121494 -0.0160848 0.0462474 0.0528635 0.06697
internal_weight=57540.8 17857.9 16703 16061.2 39682.9 38105.3 15291.4 14820.7 13060.1 12793.3 33832.9 8352.65 4272.4 7967.13 769.797 7485.7 26347.2 7668.99 6337.97 6005.22 4979.83 3093.56 1577.61 1760.6 1127.06 1154.95 1032.11 1358.13 957.195 4440.69
internal_count=424431 83408 74675 69259 341023 331007 63857 61507 51839 50711 296959 34993 34048 33206 5402 64039 232920 31983 26375 51204 20403 12793 10016 9668 6055 8733 7883 5972 4218 15718
is_linear=0
shrinkage=0.05


Tree=25
num_leaves=31
num_cat=0
split_feature=34 0 1 3 9 14 6 11 6 9 14 1 8 0 1 19 3 4 23 5 5 8 14 30 13 0 10 39 1 4
split_gain=1016.49 546.868 487.874 410.13 305.45 230.593 198.395 197.982 149.321 126.278 125.923 105.341 107.658 104.762 100.669 97.5013 80.481 76.153 73.1595 72.1827 69.6898 69.9421 112.973 177.486 69.0169 62.8715 61.3541 64.8182 61.3262 60.6941
threshold=1.0000000180025095e-35 2.5000000000000004 1.5000000000000002 1.0000000180025095e-35 1.0000000180025095e-35 1.0000000180025095e-35 1.0000000180025095e-35 1.0000000180025095e-35 1.0000000180025095e-35 1.0000000180025095e-35 1.0000000180025095e-35 1.0000000180025095e-35 1.0000000180025095e-35 2.5000000000000004 1.0000000180025095e-35 0.056830143555998809 1.0000000180025095e-35 1.0000000180025095e-35 1.0000000180025095e-35 1.0000000180025095e-35 1.0000000180025095e-35 1.0000000180025095e-35 1.0000000180025095e-35 1.0000000180025095e-35 1.0000000180025095e-35 1.5000000000000002 1.0000000180025095e-35 1.0000000180025095e-35 1.5000000000000002 1.0000000180025095e-35
decision_type=2 2 2 2 2 2 2 2 2 2 2 2 2 2 2 2 2 2 2 2 2 2 2 2 2 2 2 2 2 2
left_child=2 4 14 29 5 6 11 8 9 18 15 -2 19 -11 -1 -5 -10 -14 20 26 21 22 -4 -24 25 -23 27 -13 -6 -3
right_child=1 3 7 10 28 -7 -8 -9 16 13 -12 12 17 -15 -16 -17 -18 -19 -20 -21 -22 24 23 -25 -26 -27 -28 -29 -30 -31
leaf_value=-0.041610259363983153 -0.031891698929611016 0.026527126949834241 -0.0052658872146941612 -0.00040701656792620656 -0.013105947501466726 -0.0080620421436508934 0.026760042374235134 -0.018938004297438138 0.020686137161916682 0.0056820544244602939 -0.016795487438941159 -9.7470088992438663e-05 0.0099325536213540136 -0.026787280412319644 -0.019696004760209621 -0.006722420774149117 -0.004781110662775416 -0.011664912673266997 -0.021724140385825392 0.025201238332032257 0.0074069775082696758 -0.0079238561427680178 -0.024806678910834615 0.030918724344492221 0.013578495488738946 0.00040294097660198923 0.027467149677100334 0.0045168746924061183 0.016935794069317299 -0.022570535607936169
leaf_weight=667.75392678380013 194.48937875032425 1289.497792840004 31035.268139630556 14149.82834109664 174.77256652712822 3450.0557292699814 1050.5485548973083 2135.9208542108536 970.72692662477493 4498.5432139337063 1809.474160194397 9425.1178747713566 11732.520258098841 262.9460391998291 2435.3717946410179 10758.06280502677 455.92061617970467 422.86199742555618 620.27768978476524 395.68337443470955 1209.0579676032066 3394.9415946304798 1392.7053435444832 159.22502011060715 727.20362800359726 6822.708707690239 271.4071162045002 39530.545797556639 6065.3189531862736 66.175789654254913
leaf_count=1851 521 3698 82939 37864 469 9219 2976 5723 2686 12191 4868 25263 31975 706 6546 28712 1232 1136 1658 1088 3255 9081 3734 435 1949 18262 749 106586 16882 177
internal_value=0.000214483 0.00322893 -0.00513545 -0.00269858 0.00551742 0.00452452 0.00521354 -0.00402125 -0.00340318 -0.00385719 -0.00405992 0.00484829 0.00496395 0.00388898 -0.0244117 -0.00313473 0.0125474 0.00918122 -0.00467029 0.00393091 -0.00443386 -0.00476272 -0.00592422 -0.0190894 -0.0013045 -0.00236374 0.00375994 0.0036285 0.0160944 0.0241305
internal_weight=157575 100786 56788.6 28073 72713.3 66473.2 63023.2 53685.4 51549.5 50122.9 26717.4 61972.6 61778.1 4761.49 3103.13 24907.9 1426.65 12155.4 45361.4 49622.8 44741.1 43532.1 32587.2 1551.93 10944.9 10217.7 49227.1 48955.7 6240.09 1355.67
internal_count=424431 272183 152248 75319 196864 179513 170294 143851 138128 134210 71444 167318 166797 12897 8397 66576 3918 33111 121313 133686 119655 116400 87108 4169 29292 27343 132598 131849 17351 3875
is_linear=0
shrinkage=0.05


Tree=26
num_leaves=31
num_cat=0
split_feature=3 4 20 0 14 9 30 39 34 14 19 1 16 22 8 1 34 8 9 35 36 13 23 8 30 16 30 6 4 12
split_gain=10984.1 1628.41 1419.72 943.275 615.152 559.158 359.948 337.768 241.484 177.892 128.475 124.963 120.632 115.796 108.832 107.534 98.8433 94.8789 86.5551 81.7008 79.5617 69.9686 66.3717 107.798 65.1614 64.5826 62.0162 59.373 57.9092 56.4649
threshold=1.0000000180025095e-35 1.0000000180025095e-35 1.0000000180025095e-35 2.5000000000000004 1.0000000180025095e-35 1.0000000180025095e-35 1.0000000180025095e-35 1.0000000180025095e-35 1.0000000180025095e-35 1.0000000180025095e-35 0.056830143555998809 14.500000000000002 1.0000000180025095e-35 1.0000000180025095e-35 1.0000000180025095e-35 14.500000000000002 1.0000000180025095e-35 1.0000000180025095e-35 1.0000000180025095e-35 1.0000000180025095e-35 1.0000000180025095e-35 1.0000000180025095e-35 1.0000000180025095e-35 1.0000000180025095e-35 1.0000000180025095e-35 1.0000000180025095e-35 1.0000000180025095e-35 1.0000000180025095e-35 1.0000000180025095e-35 1.0000000180025095e-35
decision_type=2 2 2 2 2 2 2 2 2 2 2 2 2 2 2 2 2 2 2 2 2 2 2 2 2 2 2 2 2 2
left_child=1 6 3 4 5 7 13 16 12 10 19 -10 15 -1 21 26 24 -13 29 27 -7 -6 23 -3 -2 -8 -9 -5 -17 -12
right_child=2 22 -4 9 14 20 25 8 11 -11 18 17 -14 -15 -16 28 -18 -19 -20 -21 -22 -23 -24 -25 -26 -27 -28 -29 -30 -31
leaf_value=-0.032369033821644459 0.018901283928795073 0.02021564436774911 -0.027328802579386236 0.0094234572112604446 0.020647408809406784 -0.016573921922052755 -0.041424883755261849 0.0028681824677143863 -0.0028534671522432928 0.028546027029930011 0.016845246626982859 0.0039855553856919931 0.023164736523803339 -0.022877538893208704 0.0099399112188476371 0.009175312332933009 0.0086075772438580118 -0.0040217465080012466 0.03699654632881428 0.018648537744135545 0.0039024967809416621 0.035067103129548853 0.031827438802862915 -0.0062845609786752674 -0.015351927764661877 -0.014045714933216179 -0.023150770395123414 -0.02678602954847329 0.028779547890930096 -0.026614108310631726
leaf_weight=7466.6253146827221 4018.3887465596199 904.70636409521103 3069.7358672320843 13490.509932875633 2383.4418187737465 3823.8245518505573 9918.7022006809711 7497.5269150435925 15684.51156437397 2141.1848104894161 11644.042231172323 23499.907288968563 1154.7961191236973 5641.176297724247 1548.6757820248604 9401.1509780287743 10459.259701609612 4390.6443540155888 542.41934821009636 2695.0649066269398 541.57983216643333 1300.1716233193874 398.26735582947731 666.44213190674782 143.81338733434677 220.165567278862 236.23146638274193 114.16795146465302 392.41711255908012 75.22271141409874
leaf_count=24974 11080 2529 10016 37667 6480 11712 34313 21007 45598 5752 31985 67072 3121 17867 4316 26069 29567 12838 1462 7381 1633 3508 1087 1907 419 731 699 347 1085 209
internal_value=-5.41332e-05 -0.0300578 0.00623762 0.00711696 0.00444393 0.00337374 -0.0337561 0.00436218 0.00275607 0.0146458 0.0136037 0.000717082 0.00751189 -0.0282842 0.0210613 0.00648059 0.0112009 0.00272501 0.0174701 0.0106951 -0.0140336 0.025737 0.0135963 0.00897492 0.0177178 -0.0408303 0.00207342 0.00911959 0.00996083 0.0165663
internal_weight=145465 25216.1 120249 117179 86476.3 81244.1 23246.7 76878.6 62257.2 30702.6 28561.4 43575.1 18682.1 13107.8 5232.29 17527.3 14621.5 27890.6 12261.7 16299.7 4365.4 3683.61 1969.42 1571.15 4162.2 10138.9 7733.76 13604.7 9793.57 11719.3
internal_count=424431 83408 341023 331007 246204 231900 77885 218555 177489 84803 79051 125508 51981 42841 14304 48860 41066 79910 33656 45395 13345 9988 5523 4436 11499 35044 21706 38014 27154 32194
is_linear=0
shrinkage=0.05


Tree=27
num_leaves=31
num_cat=0
split_feature=3 2 1 1 22 25 1 25 1 39 20 39 8 16 21 14 8 32 1 8 32 35 14 32 12 1 22 23 9 1
split_gain=18834.5 1378.19 749.53 718.549 363.164 321.018 271.22 257.535 237.667 218.392 173.153 114.426 107.872 99.2026 90.8837 90.5832 89.1762 86.9807 85.033 78.2817 77.3514 71.2404 67.1744 66.1914 65.9439 65.2953 59.8522 59.0842 54.2258 60.7336
